{
  "model_name": "attempt_5_demographic_xgb_fixed_cycle_primary_analysis",
  "display_name": "FIXED-CYCLE DEMOGRAPHIC XGB",
  "outcome": "Evidence of current or past HCV infection",
  "exported_at": "2026-04-05 06:25:54 EDT",
  "cohort": {
    "size": 69196,
    "positive_cases": 967,
    "prevalence": 0.013974796230996012,
    "source_dataset": "/Users/sylviesaiko/Desktop/guanwen/research_for_Dr_Chen/NHANES_MINE/attempt_5/outputs/hcv_demographics_prediction_1999_2023_prespecified_demo5/data/hcv_demographics_prediction_analysis_dataset.rds"
  },
  "training": {
    "recovered_from": "attempt_5 prespecified_demo5 fixed-cycle primary analysis",
    "feature_mode": "prespecified_demo5",
    "split": "fixed_cycle",
    "training_cycles": [1, 3, 5, 6, 7, 8, 11],
    "validation_cycles": [2, 4, 12],
    "training_n": 48434,
    "validation_n": 20762,
    "predictor_columns": ["birth_year", "male", "race_ethnicityWhite", "race_ethnicityBlack", "race_ethnicityHispanic", "race_ethnicityAsian/Other", "born_usa", "incomepir"],
    "xgb_params": {
      "objective": "binary:logistic",
      "eval_metric": "auc",
      "eta": 0.050000000000000003,
      "max_depth": 3,
      "min_child_weight": 1,
      "subsample": 0.80000000000000004,
      "colsample_bytree": 0.80000000000000004,
      "scale_pos_weight": 69.809941520467831
    },
    "best_nrounds": 166,
    "max_abs_replay_error": 1.7347195435668539e-07,
    "calibration": {
      "method": "Platt scaling",
      "source": "/Users/sylviesaiko/Desktop/guanwen/research_for_Dr_Chen/NHANES_MINE/attempt_5/outputs/hcv_demographics_prediction_1999_2023_prespecified_demo5/supplement/model_probability_calibration_fixed_cycle.csv",
      "fitted_on": "fixed-cycle training cohort",
      "intercept": -4.3017797173168137,
      "slope": 1.1964747807870779
    }
  },
  "scoring": {
    "base_margin": 9.9515929719018459e-08,
    "objective": "binary:logistic",
    "calibration": {
      "method": "platt",
      "intercept": -4.3017797173168137,
      "slope": 1.1964747807870779
    },
    "trees": [
      {
        "nodeid": 0,
        "depth": 0,
        "split": "birth_year",
        "split_condition": 1975,
        "yes": 1,
        "no": 2,
        "missing": 2,
        "children": [
          {
            "nodeid": 1,
            "depth": 1,
            "split": "birth_year",
            "split_condition": 1945,
            "yes": 3,
            "no": 4,
            "missing": 4,
            "children": [
              {
                "nodeid": 3,
                "depth": 2,
                "split": "race_ethnicityBlack",
                "split_condition": 1,
                "yes": 7,
                "no": 8,
                "missing": 8,
                "children": [
                  {
                    "nodeid": 7,
                    "leaf": -0.047602836000000003
                  },
                  {
                    "nodeid": 8,
                    "leaf": 0.038824897300000001
                  }
                ]
              },
              {
                "nodeid": 4,
                "depth": 2,
                "split": "incomepir",
                "split_condition": 2.4500000499999999,
                "yes": 9,
                "no": 10,
                "missing": 10,
                "children": [
                  {
                    "nodeid": 9,
                    "leaf": 0.058282017700000001
                  },
                  {
                    "nodeid": 10,
                    "leaf": 0.0061839460399999999
                  }
                ]
              }
            ]
          },
          {
            "nodeid": 2,
            "depth": 1,
            "split": "birth_year",
            "split_condition": 1985,
            "yes": 5,
            "no": 6,
            "missing": 6,
            "children": [
              {
                "nodeid": 5,
                "depth": 2,
                "split": "incomepir",
                "split_condition": 1.5199999799999999,
                "yes": 11,
                "no": 12,
                "missing": 12,
                "children": [
                  {
                    "nodeid": 11,
                    "leaf": -0.022799255300000001
                  },
                  {
                    "nodeid": 12,
                    "leaf": -0.082257509199999995
                  }
                ]
              },
              {
                "nodeid": 6,
                "depth": 2,
                "split": "birth_year",
                "split_condition": 1995,
                "yes": 13,
                "no": 14,
                "missing": 14,
                "children": [
                  {
                    "nodeid": 13,
                    "leaf": -0.085030883599999996
                  },
                  {
                    "nodeid": 14,
                    "leaf": -0.099950440200000004
                  }
                ]
              }
            ]
          }
        ]
      },
      {
        "nodeid": 0,
        "depth": 0,
        "split": "birth_year",
        "split_condition": 1977,
        "yes": 1,
        "no": 2,
        "missing": 2,
        "children": [
          {
            "nodeid": 1,
            "depth": 1,
            "split": "birth_year",
            "split_condition": 1942,
            "yes": 3,
            "no": 4,
            "missing": 4,
            "children": [
              {
                "nodeid": 3,
                "depth": 2,
                "split": "race_ethnicityWhite",
                "split_condition": 1,
                "yes": 7,
                "no": 8,
                "missing": 8,
                "children": [
                  {
                    "nodeid": 7,
                    "leaf": 0.012097604600000001
                  },
                  {
                    "nodeid": 8,
                    "leaf": -0.054764051000000001
                  }
                ]
              },
              {
                "nodeid": 4,
                "depth": 2,
                "split": "born_usa",
                "split_condition": 1,
                "yes": 9,
                "no": 10,
                "missing": 10,
                "children": [
                  {
                    "nodeid": 9,
                    "leaf": -0.0154682547
                  },
                  {
                    "nodeid": 10,
                    "leaf": 0.047492831899999997
                  }
                ]
              }
            ]
          },
          {
            "nodeid": 2,
            "depth": 1,
            "split": "race_ethnicityWhite",
            "split_condition": 1,
            "yes": 5,
            "no": 6,
            "missing": 6,
            "children": [
              {
                "nodeid": 5,
                "depth": 2,
                "split": "birth_year",
                "split_condition": 1994,
                "yes": 11,
                "no": 12,
                "missing": 12,
                "children": [
                  {
                    "nodeid": 11,
                    "leaf": -0.081359230000000005
                  },
                  {
                    "nodeid": 12,
                    "leaf": -0.095234222699999996
                  }
                ]
              },
              {
                "nodeid": 6,
                "depth": 2,
                "split": "birth_year",
                "split_condition": 1986,
                "yes": 13,
                "no": 14,
                "missing": 14,
                "children": [
                  {
                    "nodeid": 13,
                    "leaf": -0.032090660200000003
                  },
                  {
                    "nodeid": 14,
                    "leaf": -0.077571146199999996
                  }
                ]
              }
            ]
          }
        ]
      },
      {
        "nodeid": 0,
        "depth": 0,
        "split": "birth_year",
        "split_condition": 1975,
        "yes": 1,
        "no": 2,
        "missing": 2,
        "children": [
          {
            "nodeid": 1,
            "depth": 1,
            "split": "birth_year",
            "split_condition": 1945,
            "yes": 3,
            "no": 4,
            "missing": 4,
            "children": [
              {
                "nodeid": 3,
                "depth": 2,
                "split": "race_ethnicityBlack",
                "split_condition": 1,
                "yes": 7,
                "no": 8,
                "missing": 8,
                "children": [
                  {
                    "nodeid": 7,
                    "leaf": -0.040827427100000001
                  },
                  {
                    "nodeid": 8,
                    "leaf": 0.034360073499999998
                  }
                ]
              },
              {
                "nodeid": 4,
                "depth": 2,
                "split": "born_usa",
                "split_condition": 1,
                "yes": 9,
                "no": 10,
                "missing": 10,
                "children": [
                  {
                    "nodeid": 9,
                    "leaf": -0.0150982384
                  },
                  {
                    "nodeid": 10,
                    "leaf": 0.047562535900000001
                  }
                ]
              }
            ]
          },
          {
            "nodeid": 2,
            "depth": 1,
            "split": "birth_year",
            "split_condition": 1995,
            "yes": 5,
            "no": 6,
            "missing": 6,
            "children": [
              {
                "nodeid": 5,
                "depth": 2,
                "split": "race_ethnicityWhite",
                "split_condition": 1,
                "yes": 11,
                "no": 12,
                "missing": 12,
                "children": [
                  {
                    "nodeid": 11,
                    "leaf": -0.076650731299999997
                  },
                  {
                    "nodeid": 12,
                    "leaf": -0.040492605399999999
                  }
                ]
              },
              {
                "nodeid": 6,
                "leaf": -0.091302402300000002
              }
            ]
          }
        ]
      },
      {
        "nodeid": 0,
        "depth": 0,
        "split": "birth_year",
        "split_condition": 1975,
        "yes": 1,
        "no": 2,
        "missing": 2,
        "children": [
          {
            "nodeid": 1,
            "depth": 1,
            "split": "incomepir",
            "split_condition": 1.89999998,
            "yes": 3,
            "no": 4,
            "missing": 4,
            "children": [
              {
                "nodeid": 3,
                "depth": 2,
                "split": "birth_year",
                "split_condition": 1938,
                "yes": 7,
                "no": 8,
                "missing": 8,
                "children": [
                  {
                    "nodeid": 7,
                    "leaf": -0.033244397500000002
                  },
                  {
                    "nodeid": 8,
                    "leaf": 0.053237851699999998
                  }
                ]
              },
              {
                "nodeid": 4,
                "depth": 2,
                "split": "birth_year",
                "split_condition": 1966,
                "yes": 9,
                "no": 10,
                "missing": 10,
                "children": [
                  {
                    "nodeid": 9,
                    "leaf": 0.0072460523799999996
                  },
                  {
                    "nodeid": 10,
                    "leaf": -0.050532747099999997
                  }
                ]
              }
            ]
          },
          {
            "nodeid": 2,
            "depth": 1,
            "split": "birth_year",
            "split_condition": 1985,
            "yes": 5,
            "no": 6,
            "missing": 6,
            "children": [
              {
                "nodeid": 5,
                "depth": 2,
                "split": "incomepir",
                "split_condition": 1.36000001,
                "yes": 11,
                "no": 12,
                "missing": 12,
                "children": [
                  {
                    "nodeid": 11,
                    "leaf": -0.016632963000000001
                  },
                  {
                    "nodeid": 12,
                    "leaf": -0.078674040700000003
                  }
                ]
              },
              {
                "nodeid": 6,
                "depth": 2,
                "split": "birth_year",
                "split_condition": 1995,
                "yes": 13,
                "no": 14,
                "missing": 14,
                "children": [
                  {
                    "nodeid": 13,
                    "leaf": -0.071155935500000003
                  },
                  {
                    "nodeid": 14,
                    "leaf": -0.085946083100000001
                  }
                ]
              }
            ]
          }
        ]
      },
      {
        "nodeid": 0,
        "depth": 0,
        "split": "birth_year",
        "split_condition": 1971,
        "yes": 1,
        "no": 2,
        "missing": 2,
        "children": [
          {
            "nodeid": 1,
            "depth": 1,
            "split": "birth_year",
            "split_condition": 1945,
            "yes": 3,
            "no": 4,
            "missing": 4,
            "children": [
              {
                "nodeid": 3,
                "depth": 2,
                "split": "race_ethnicityWhite",
                "split_condition": 1,
                "yes": 7,
                "no": 8,
                "missing": 8,
                "children": [
                  {
                    "nodeid": 7,
                    "leaf": 0.0149075435
                  },
                  {
                    "nodeid": 8,
                    "leaf": -0.0539441295
                  }
                ]
              },
              {
                "nodeid": 4,
                "depth": 2,
                "split": "incomepir",
                "split_condition": 3.0399999599999998,
                "yes": 9,
                "no": 10,
                "missing": 10,
                "children": [
                  {
                    "nodeid": 9,
                    "leaf": 0.0526712425
                  },
                  {
                    "nodeid": 10,
                    "leaf": 0.0040033636600000002
                  }
                ]
              }
            ]
          },
          {
            "nodeid": 2,
            "depth": 1,
            "split": "birth_year",
            "split_condition": 1985,
            "yes": 5,
            "no": 6,
            "missing": 6,
            "children": [
              {
                "nodeid": 5,
                "depth": 2,
                "split": "race_ethnicityWhite",
                "split_condition": 1,
                "yes": 11,
                "no": 12,
                "missing": 12,
                "children": [
                  {
                    "nodeid": 11,
                    "leaf": -0.059756286399999997
                  },
                  {
                    "nodeid": 12,
                    "leaf": -0.0044417488399999998
                  }
                ]
              },
              {
                "nodeid": 6,
                "depth": 2,
                "split": "birth_year",
                "split_condition": 1995,
                "yes": 13,
                "no": 14,
                "missing": 14,
                "children": [
                  {
                    "nodeid": 13,
                    "leaf": -0.064845137299999994
                  },
                  {
                    "nodeid": 14,
                    "leaf": -0.082822672999999999
                  }
                ]
              }
            ]
          }
        ]
      },
      {
        "nodeid": 0,
        "depth": 0,
        "split": "birth_year",
        "split_condition": 1971,
        "yes": 1,
        "no": 2,
        "missing": 2,
        "children": [
          {
            "nodeid": 1,
            "depth": 1,
            "split": "birth_year",
            "split_condition": 1945,
            "yes": 3,
            "no": 4,
            "missing": 4,
            "children": [
              {
                "nodeid": 3,
                "depth": 2,
                "split": "race_ethnicityWhite",
                "split_condition": 1,
                "yes": 7,
                "no": 8,
                "missing": 8,
                "children": [
                  {
                    "nodeid": 7,
                    "leaf": 0.012606254799999999
                  },
                  {
                    "nodeid": 8,
                    "leaf": -0.043790526699999999
                  }
                ]
              },
              {
                "nodeid": 4,
                "depth": 2,
                "split": "born_usa",
                "split_condition": 1,
                "yes": 9,
                "no": 10,
                "missing": 10,
                "children": [
                  {
                    "nodeid": 9,
                    "leaf": -0.030319848999999999
                  },
                  {
                    "nodeid": 10,
                    "leaf": 0.045452084400000002
                  }
                ]
              }
            ]
          },
          {
            "nodeid": 2,
            "depth": 1,
            "split": "birth_year",
            "split_condition": 1983,
            "yes": 5,
            "no": 6,
            "missing": 6,
            "children": [
              {
                "nodeid": 5,
                "depth": 2,
                "split": "race_ethnicityWhite",
                "split_condition": 1,
                "yes": 11,
                "no": 12,
                "missing": 12,
                "children": [
                  {
                    "nodeid": 11,
                    "leaf": -0.055038761300000003
                  },
                  {
                    "nodeid": 12,
                    "leaf": -0.00735709677
                  }
                ]
              },
              {
                "nodeid": 6,
                "depth": 2,
                "split": "birth_year",
                "split_condition": 1993,
                "yes": 13,
                "no": 14,
                "missing": 14,
                "children": [
                  {
                    "nodeid": 13,
                    "leaf": -0.061014380299999997
                  },
                  {
                    "nodeid": 14,
                    "leaf": -0.080694623300000004
                  }
                ]
              }
            ]
          }
        ]
      },
      {
        "nodeid": 0,
        "depth": 0,
        "split": "birth_year",
        "split_condition": 1973,
        "yes": 1,
        "no": 2,
        "missing": 2,
        "children": [
          {
            "nodeid": 1,
            "depth": 1,
            "split": "incomepir",
            "split_condition": 1.9199999599999999,
            "yes": 3,
            "no": 4,
            "missing": 4,
            "children": [
              {
                "nodeid": 3,
                "depth": 2,
                "split": "birth_year",
                "split_condition": 1948,
                "yes": 7,
                "no": 8,
                "missing": 8,
                "children": [
                  {
                    "nodeid": 7,
                    "leaf": 0.0024581986899999998
                  },
                  {
                    "nodeid": 8,
                    "leaf": 0.052647091399999998
                  }
                ]
              },
              {
                "nodeid": 4,
                "depth": 2,
                "split": "male",
                "split_condition": 1,
                "yes": 9,
                "no": 10,
                "missing": 10,
                "children": [
                  {
                    "nodeid": 9,
                    "leaf": -0.024235380800000001
                  },
                  {
                    "nodeid": 10,
                    "leaf": 0.017369227500000001
                  }
                ]
              }
            ]
          },
          {
            "nodeid": 2,
            "depth": 1,
            "split": "birth_year",
            "split_condition": 1983,
            "yes": 5,
            "no": 6,
            "missing": 6,
            "children": [
              {
                "nodeid": 5,
                "depth": 2,
                "split": "incomepir",
                "split_condition": 1.36000001,
                "yes": 11,
                "no": 12,
                "missing": 12,
                "children": [
                  {
                    "nodeid": 11,
                    "leaf": 0.00164579251
                  },
                  {
                    "nodeid": 12,
                    "leaf": -0.064083524000000003
                  }
                ]
              },
              {
                "nodeid": 6,
                "depth": 2,
                "split": "birth_year",
                "split_condition": 1995,
                "yes": 13,
                "no": 14,
                "missing": 14,
                "children": [
                  {
                    "nodeid": 13,
                    "leaf": -0.0618617609
                  },
                  {
                    "nodeid": 14,
                    "leaf": -0.079362422200000005
                  }
                ]
              }
            ]
          }
        ]
      },
      {
        "nodeid": 0,
        "depth": 0,
        "split": "incomepir",
        "split_condition": 2.4500000499999999,
        "yes": 1,
        "no": 2,
        "missing": 2,
        "children": [
          {
            "nodeid": 1,
            "depth": 1,
            "split": "born_usa",
            "split_condition": 1,
            "yes": 3,
            "no": 4,
            "missing": 4,
            "children": [
              {
                "nodeid": 3,
                "depth": 2,
                "split": "incomepir",
                "split_condition": 2.2400000100000002,
                "yes": 7,
                "no": 8,
                "missing": 8,
                "children": [
                  {
                    "nodeid": 7,
                    "leaf": -0.0267329309
                  },
                  {
                    "nodeid": 8,
                    "leaf": -0.091449648100000003
                  }
                ]
              },
              {
                "nodeid": 4,
                "depth": 2,
                "split": "male",
                "split_condition": 1,
                "yes": 9,
                "no": 10,
                "missing": 10,
                "children": [
                  {
                    "nodeid": 9,
                    "leaf": 0.0047485912199999999
                  },
                  {
                    "nodeid": 10,
                    "leaf": 0.028293877799999999
                  }
                ]
              }
            ]
          },
          {
            "nodeid": 2,
            "depth": 1,
            "split": "race_ethnicityBlack",
            "split_condition": 1,
            "yes": 5,
            "no": 6,
            "missing": 6,
            "children": [
              {
                "nodeid": 5,
                "depth": 2,
                "split": "male",
                "split_condition": 1,
                "yes": 11,
                "no": 12,
                "missing": 12,
                "children": [
                  {
                    "nodeid": 11,
                    "leaf": -0.052235443100000001
                  },
                  {
                    "nodeid": 12,
                    "leaf": -0.022090008500000001
                  }
                ]
              },
              {
                "nodeid": 6,
                "depth": 2,
                "split": "born_usa",
                "split_condition": 1,
                "yes": 13,
                "no": 14,
                "missing": 14,
                "children": [
                  {
                    "nodeid": 13,
                    "leaf": -0.089822024099999995
                  },
                  {
                    "nodeid": 14,
                    "leaf": 0.0088118892200000007
                  }
                ]
              }
            ]
          }
        ]
      },
      {
        "nodeid": 0,
        "depth": 0,
        "split": "birth_year",
        "split_condition": 1977,
        "yes": 1,
        "no": 2,
        "missing": 2,
        "children": [
          {
            "nodeid": 1,
            "depth": 1,
            "split": "incomepir",
            "split_condition": 3.7699999800000001,
            "yes": 3,
            "no": 4,
            "missing": 4,
            "children": [
              {
                "nodeid": 3,
                "depth": 2,
                "split": "born_usa",
                "split_condition": 1,
                "yes": 7,
                "no": 8,
                "missing": 8,
                "children": [
                  {
                    "nodeid": 7,
                    "leaf": -0.0129612181
                  },
                  {
                    "nodeid": 8,
                    "leaf": 0.039358165100000002
                  }
                ]
              },
              {
                "nodeid": 4,
                "depth": 2,
                "split": "birth_year",
                "split_condition": 1967,
                "yes": 9,
                "no": 10,
                "missing": 10,
                "children": [
                  {
                    "nodeid": 9,
                    "leaf": -0.0093060359400000004
                  },
                  {
                    "nodeid": 10,
                    "leaf": -0.077664397699999999
                  }
                ]
              }
            ]
          },
          {
            "nodeid": 2,
            "depth": 1,
            "split": "race_ethnicityWhite",
            "split_condition": 1,
            "yes": 5,
            "no": 6,
            "missing": 6,
            "children": [
              {
                "nodeid": 5,
                "depth": 2,
                "split": "birth_year",
                "split_condition": 1987,
                "yes": 11,
                "no": 12,
                "missing": 12,
                "children": [
                  {
                    "nodeid": 11,
                    "leaf": -0.081897735599999993
                  },
                  {
                    "nodeid": 12,
                    "leaf": -0.073749773199999993
                  }
                ]
              },
              {
                "nodeid": 6,
                "depth": 2,
                "split": "incomepir",
                "split_condition": 1.0399999600000001,
                "yes": 13,
                "no": 14,
                "missing": 14,
                "children": [
                  {
                    "nodeid": 13,
                    "leaf": -0.0168628283
                  },
                  {
                    "nodeid": 14,
                    "leaf": -0.0606857352
                  }
                ]
              }
            ]
          }
        ]
      },
      {
        "nodeid": 0,
        "depth": 0,
        "split": "birth_year",
        "split_condition": 1971,
        "yes": 1,
        "no": 2,
        "missing": 2,
        "children": [
          {
            "nodeid": 1,
            "depth": 1,
            "split": "birth_year",
            "split_condition": 1945,
            "yes": 3,
            "no": 4,
            "missing": 4,
            "children": [
              {
                "nodeid": 3,
                "depth": 2,
                "split": "incomepir",
                "split_condition": 1.1599999700000001,
                "yes": 7,
                "no": 8,
                "missing": 8,
                "children": [
                  {
                    "nodeid": 7,
                    "leaf": 0.021866820799999999
                  },
                  {
                    "nodeid": 8,
                    "leaf": -0.032936971600000003
                  }
                ]
              },
              {
                "nodeid": 4,
                "depth": 2,
                "split": "born_usa",
                "split_condition": 1,
                "yes": 9,
                "no": 10,
                "missing": 10,
                "children": [
                  {
                    "nodeid": 9,
                    "leaf": -0.019028706499999999
                  },
                  {
                    "nodeid": 10,
                    "leaf": 0.042197015099999999
                  }
                ]
              }
            ]
          },
          {
            "nodeid": 2,
            "depth": 1,
            "split": "birth_year",
            "split_condition": 1991,
            "yes": 5,
            "no": 6,
            "missing": 6,
            "children": [
              {
                "nodeid": 5,
                "depth": 2,
                "split": "incomepir",
                "split_condition": 2.4500000499999999,
                "yes": 11,
                "no": 12,
                "missing": 12,
                "children": [
                  {
                    "nodeid": 11,
                    "leaf": -0.024555742700000001
                  },
                  {
                    "nodeid": 12,
                    "leaf": -0.067191451799999996
                  }
                ]
              },
              {
                "nodeid": 6,
                "depth": 2,
                "split": "birth_year",
                "split_condition": 1998,
                "yes": 13,
                "no": 14,
                "missing": 14,
                "children": [
                  {
                    "nodeid": 13,
                    "leaf": -0.061824627200000003
                  },
                  {
                    "nodeid": 14,
                    "leaf": -0.0753600299
                  }
                ]
              }
            ]
          }
        ]
      },
      {
        "nodeid": 0,
        "depth": 0,
        "split": "incomepir",
        "split_condition": 2.3199999299999998,
        "yes": 1,
        "no": 2,
        "missing": 2,
        "children": [
          {
            "nodeid": 1,
            "depth": 1,
            "split": "race_ethnicityHispanic",
            "split_condition": 1,
            "yes": 3,
            "no": 4,
            "missing": 4,
            "children": [
              {
                "nodeid": 3,
                "depth": 2,
                "split": "male",
                "split_condition": 1,
                "yes": 7,
                "no": 8,
                "missing": 8,
                "children": [
                  {
                    "nodeid": 7,
                    "leaf": 0.0074806506700000001
                  },
                  {
                    "nodeid": 8,
                    "leaf": 0.031795140399999998
                  }
                ]
              },
              {
                "nodeid": 4,
                "depth": 2,
                "split": "incomepir",
                "split_condition": 1.60000002,
                "yes": 9,
                "no": 10,
                "missing": 10,
                "children": [
                  {
                    "nodeid": 9,
                    "leaf": -0.026588952200000002
                  },
                  {
                    "nodeid": 10,
                    "leaf": 0.0072582997399999998
                  }
                ]
              }
            ]
          },
          {
            "nodeid": 2,
            "depth": 1,
            "split": "race_ethnicityBlack",
            "split_condition": 1,
            "yes": 5,
            "no": 6,
            "missing": 6,
            "children": [
              {
                "nodeid": 5,
                "depth": 2,
                "split": "male",
                "split_condition": 1,
                "yes": 11,
                "no": 12,
                "missing": 12,
                "children": [
                  {
                    "nodeid": 11,
                    "leaf": -0.040329668700000001
                  },
                  {
                    "nodeid": 12,
                    "leaf": -0.0177676771
                  }
                ]
              },
              {
                "nodeid": 6,
                "depth": 2,
                "split": "male",
                "split_condition": 1,
                "yes": 13,
                "no": 14,
                "missing": 14,
                "children": [
                  {
                    "nodeid": 13,
                    "leaf": -0.017591809900000002
                  },
                  {
                    "nodeid": 14,
                    "leaf": 0.016574779500000001
                  }
                ]
              }
            ]
          }
        ]
      },
      {
        "nodeid": 0,
        "depth": 0,
        "split": "birth_year",
        "split_condition": 1977,
        "yes": 1,
        "no": 2,
        "missing": 2,
        "children": [
          {
            "nodeid": 1,
            "depth": 1,
            "split": "birth_year",
            "split_condition": 1941,
            "yes": 3,
            "no": 4,
            "missing": 4,
            "children": [
              {
                "nodeid": 3,
                "depth": 2,
                "split": "race_ethnicityWhite",
                "split_condition": 1,
                "yes": 7,
                "no": 8,
                "missing": 8,
                "children": [
                  {
                    "nodeid": 7,
                    "leaf": 0.0028991969299999999
                  },
                  {
                    "nodeid": 8,
                    "leaf": -0.0443356149
                  }
                ]
              },
              {
                "nodeid": 4,
                "depth": 2,
                "split": "born_usa",
                "split_condition": 1,
                "yes": 9,
                "no": 10,
                "missing": 10,
                "children": [
                  {
                    "nodeid": 9,
                    "leaf": -0.0191069525
                  },
                  {
                    "nodeid": 10,
                    "leaf": 0.034763023300000001
                  }
                ]
              }
            ]
          },
          {
            "nodeid": 2,
            "depth": 1,
            "split": "race_ethnicityWhite",
            "split_condition": 1,
            "yes": 5,
            "no": 6,
            "missing": 6,
            "children": [
              {
                "nodeid": 5,
                "depth": 2,
                "split": "birth_year",
                "split_condition": 1994,
                "yes": 11,
                "no": 12,
                "missing": 12,
                "children": [
                  {
                    "nodeid": 11,
                    "leaf": -0.0609901734
                  },
                  {
                    "nodeid": 12,
                    "leaf": -0.073414772700000006
                  }
                ]
              },
              {
                "nodeid": 6,
                "depth": 2,
                "split": "birth_year",
                "split_condition": 1986,
                "yes": 13,
                "no": 14,
                "missing": 14,
                "children": [
                  {
                    "nodeid": 13,
                    "leaf": -0.018252022600000001
                  },
                  {
                    "nodeid": 14,
                    "leaf": -0.059267170700000003
                  }
                ]
              }
            ]
          }
        ]
      },
      {
        "nodeid": 0,
        "depth": 0,
        "split": "race_ethnicityBlack",
        "split_condition": 1,
        "yes": 1,
        "no": 2,
        "missing": 2,
        "children": [
          {
            "nodeid": 1,
            "depth": 1,
            "split": "male",
            "split_condition": 1,
            "yes": 3,
            "no": 4,
            "missing": 4,
            "children": [
              {
                "nodeid": 3,
                "depth": 2,
                "split": "born_usa",
                "split_condition": 1,
                "yes": 7,
                "no": 8,
                "missing": 8,
                "children": [
                  {
                    "nodeid": 7,
                    "leaf": -0.037667796000000003
                  },
                  {
                    "nodeid": 8,
                    "leaf": -0.018245642999999999
                  }
                ]
              },
              {
                "nodeid": 4,
                "depth": 2,
                "split": "born_usa",
                "split_condition": 1,
                "yes": 9,
                "no": 10,
                "missing": 10,
                "children": [
                  {
                    "nodeid": 9,
                    "leaf": -0.025120088799999999
                  },
                  {
                    "nodeid": 10,
                    "leaf": 0.00763933687
                  }
                ]
              }
            ]
          },
          {
            "nodeid": 2,
            "depth": 1,
            "split": "male",
            "split_condition": 1,
            "yes": 5,
            "no": 6,
            "missing": 6,
            "children": [
              {
                "nodeid": 5,
                "depth": 2,
                "split": "born_usa",
                "split_condition": 1,
                "yes": 11,
                "no": 12,
                "missing": 12,
                "children": [
                  {
                    "nodeid": 11,
                    "leaf": -0.016409300299999999
                  },
                  {
                    "nodeid": 12,
                    "leaf": 0.00897950772
                  }
                ]
              },
              {
                "nodeid": 6,
                "depth": 2,
                "split": "born_usa",
                "split_condition": 1,
                "yes": 13,
                "no": 14,
                "missing": 14,
                "children": [
                  {
                    "nodeid": 13,
                    "leaf": 0.0310275164
                  },
                  {
                    "nodeid": 14,
                    "leaf": 0.026673916700000001
                  }
                ]
              }
            ]
          }
        ]
      },
      {
        "nodeid": 0,
        "depth": 0,
        "split": "birth_year",
        "split_condition": 1975,
        "yes": 1,
        "no": 2,
        "missing": 2,
        "children": [
          {
            "nodeid": 1,
            "depth": 1,
            "split": "incomepir",
            "split_condition": 1.89999998,
            "yes": 3,
            "no": 4,
            "missing": 4,
            "children": [
              {
                "nodeid": 3,
                "depth": 2,
                "split": "born_usa",
                "split_condition": 1,
                "yes": 7,
                "no": 8,
                "missing": 8,
                "children": [
                  {
                    "nodeid": 7,
                    "leaf": -0.0127840787
                  },
                  {
                    "nodeid": 8,
                    "leaf": 0.042727138800000002
                  }
                ]
              },
              {
                "nodeid": 4,
                "depth": 2,
                "split": "birth_year",
                "split_condition": 1966,
                "yes": 9,
                "no": 10,
                "missing": 10,
                "children": [
                  {
                    "nodeid": 9,
                    "leaf": 0.0048960475300000002
                  },
                  {
                    "nodeid": 10,
                    "leaf": -0.043152950699999998
                  }
                ]
              }
            ]
          },
          {
            "nodeid": 2,
            "depth": 1,
            "split": "race_ethnicityWhite",
            "split_condition": 1,
            "yes": 5,
            "no": 6,
            "missing": 6,
            "children": [
              {
                "nodeid": 5,
                "depth": 2,
                "split": "birth_year",
                "split_condition": 1991,
                "yes": 11,
                "no": 12,
                "missing": 12,
                "children": [
                  {
                    "nodeid": 11,
                    "leaf": -0.053997423500000002
                  },
                  {
                    "nodeid": 12,
                    "leaf": -0.070293434000000002
                  }
                ]
              },
              {
                "nodeid": 6,
                "depth": 2,
                "split": "incomepir",
                "split_condition": 1.0399999600000001,
                "yes": 13,
                "no": 14,
                "missing": 14,
                "children": [
                  {
                    "nodeid": 13,
                    "leaf": 0.0042643561
                  },
                  {
                    "nodeid": 14,
                    "leaf": -0.052333649199999999
                  }
                ]
              }
            ]
          }
        ]
      },
      {
        "nodeid": 0,
        "depth": 0,
        "split": "birth_year",
        "split_condition": 1977,
        "yes": 1,
        "no": 2,
        "missing": 2,
        "children": [
          {
            "nodeid": 1,
            "depth": 1,
            "split": "incomepir",
            "split_condition": 1.7999999499999999,
            "yes": 3,
            "no": 4,
            "missing": 4,
            "children": [
              {
                "nodeid": 3,
                "depth": 2,
                "split": "born_usa",
                "split_condition": 1,
                "yes": 7,
                "no": 8,
                "missing": 8,
                "children": [
                  {
                    "nodeid": 7,
                    "leaf": -0.0093679232500000001
                  },
                  {
                    "nodeid": 8,
                    "leaf": 0.041984703399999997
                  }
                ]
              },
              {
                "nodeid": 4,
                "depth": 2,
                "split": "male",
                "split_condition": 1,
                "yes": 9,
                "no": 10,
                "missing": 10,
                "children": [
                  {
                    "nodeid": 9,
                    "leaf": -0.0261906534
                  },
                  {
                    "nodeid": 10,
                    "leaf": 0.0157104414
                  }
                ]
              }
            ]
          },
          {
            "nodeid": 2,
            "depth": 1,
            "split": "birth_year",
            "split_condition": 1985,
            "yes": 5,
            "no": 6,
            "missing": 6,
            "children": [
              {
                "nodeid": 5,
                "depth": 2,
                "split": "incomepir",
                "split_condition": 1.5199999799999999,
                "yes": 11,
                "no": 12,
                "missing": 12,
                "children": [
                  {
                    "nodeid": 11,
                    "leaf": -0.0170263238
                  },
                  {
                    "nodeid": 12,
                    "leaf": -0.051406104100000002
                  }
                ]
              },
              {
                "nodeid": 6,
                "depth": 2,
                "split": "birth_year",
                "split_condition": 1995,
                "yes": 13,
                "no": 14,
                "missing": 14,
                "children": [
                  {
                    "nodeid": 13,
                    "leaf": -0.051946234000000001
                  },
                  {
                    "nodeid": 14,
                    "leaf": -0.068690739599999995
                  }
                ]
              }
            ]
          }
        ]
      },
      {
        "nodeid": 0,
        "depth": 0,
        "split": "birth_year",
        "split_condition": 1971,
        "yes": 1,
        "no": 2,
        "missing": 2,
        "children": [
          {
            "nodeid": 1,
            "depth": 1,
            "split": "birth_year",
            "split_condition": 1945,
            "yes": 3,
            "no": 4,
            "missing": 4,
            "children": [
              {
                "nodeid": 3,
                "depth": 2,
                "split": "race_ethnicityWhite",
                "split_condition": 1,
                "yes": 7,
                "no": 8,
                "missing": 8,
                "children": [
                  {
                    "nodeid": 7,
                    "leaf": 0.0026378638599999999
                  },
                  {
                    "nodeid": 8,
                    "leaf": -0.041765548299999997
                  }
                ]
              },
              {
                "nodeid": 4,
                "depth": 2,
                "split": "born_usa",
                "split_condition": 1,
                "yes": 9,
                "no": 10,
                "missing": 10,
                "children": [
                  {
                    "nodeid": 9,
                    "leaf": -0.0082191256799999998
                  },
                  {
                    "nodeid": 10,
                    "leaf": 0.036195427199999998
                  }
                ]
              }
            ]
          },
          {
            "nodeid": 2,
            "depth": 1,
            "split": "birth_year",
            "split_condition": 1991,
            "yes": 5,
            "no": 6,
            "missing": 6,
            "children": [
              {
                "nodeid": 5,
                "depth": 2,
                "split": "race_ethnicityWhite",
                "split_condition": 1,
                "yes": 11,
                "no": 12,
                "missing": 12,
                "children": [
                  {
                    "nodeid": 11,
                    "leaf": -0.045680805999999997
                  },
                  {
                    "nodeid": 12,
                    "leaf": -0.012887365200000001
                  }
                ]
              },
              {
                "nodeid": 6,
                "depth": 2,
                "split": "race_ethnicityWhite",
                "split_condition": 1,
                "yes": 13,
                "no": 14,
                "missing": 14,
                "children": [
                  {
                    "nodeid": 13,
                    "leaf": -0.069569766500000005
                  },
                  {
                    "nodeid": 14,
                    "leaf": -0.061332214599999997
                  }
                ]
              }
            ]
          }
        ]
      },
      {
        "nodeid": 0,
        "depth": 0,
        "split": "birth_year",
        "split_condition": 1971,
        "yes": 1,
        "no": 2,
        "missing": 2,
        "children": [
          {
            "nodeid": 1,
            "depth": 1,
            "split": "birth_year",
            "split_condition": 1949,
            "yes": 3,
            "no": 4,
            "missing": 4,
            "children": [
              {
                "nodeid": 3,
                "depth": 2,
                "split": "race_ethnicityBlack",
                "split_condition": 1,
                "yes": 7,
                "no": 8,
                "missing": 8,
                "children": [
                  {
                    "nodeid": 7,
                    "leaf": -0.025524510100000002
                  },
                  {
                    "nodeid": 8,
                    "leaf": 0.031706448599999999
                  }
                ]
              },
              {
                "nodeid": 4,
                "depth": 2,
                "split": "incomepir",
                "split_condition": 3.6300001100000001,
                "yes": 9,
                "no": 10,
                "missing": 10,
                "children": [
                  {
                    "nodeid": 9,
                    "leaf": 0.038751330200000003
                  },
                  {
                    "nodeid": 10,
                    "leaf": -0.00996639486
                  }
                ]
              }
            ]
          },
          {
            "nodeid": 2,
            "depth": 1,
            "split": "birth_year",
            "split_condition": 1989,
            "yes": 5,
            "no": 6,
            "missing": 6,
            "children": [
              {
                "nodeid": 5,
                "depth": 2,
                "split": "incomepir",
                "split_condition": 2.4500000499999999,
                "yes": 11,
                "no": 12,
                "missing": 12,
                "children": [
                  {
                    "nodeid": 11,
                    "leaf": -0.0214351043
                  },
                  {
                    "nodeid": 12,
                    "leaf": -0.062368776600000002
                  }
                ]
              },
              {
                "nodeid": 6,
                "depth": 2,
                "split": "birth_year",
                "split_condition": 1998,
                "yes": 13,
                "no": 14,
                "missing": 14,
                "children": [
                  {
                    "nodeid": 13,
                    "leaf": -0.0570727475
                  },
                  {
                    "nodeid": 14,
                    "leaf": -0.068001598100000005
                  }
                ]
              }
            ]
          }
        ]
      },
      {
        "nodeid": 0,
        "depth": 0,
        "split": "incomepir",
        "split_condition": 2.4500000499999999,
        "yes": 1,
        "no": 2,
        "missing": 2,
        "children": [
          {
            "nodeid": 1,
            "depth": 1,
            "split": "born_usa",
            "split_condition": 1,
            "yes": 3,
            "no": 4,
            "missing": 4,
            "children": [
              {
                "nodeid": 3,
                "depth": 2,
                "split": "race_ethnicityBlack",
                "split_condition": 1,
                "yes": 7,
                "no": 8,
                "missing": 8,
                "children": [
                  {
                    "nodeid": 7,
                    "leaf": -0.026199227200000001
                  },
                  {
                    "nodeid": 8,
                    "leaf": 0.0272542518
                  }
                ]
              },
              {
                "nodeid": 4,
                "depth": 2,
                "split": "incomepir",
                "split_condition": 1.0399999600000001,
                "yes": 9,
                "no": 10,
                "missing": 10,
                "children": [
                  {
                    "nodeid": 9,
                    "leaf": 0.026745730999999998
                  },
                  {
                    "nodeid": 10,
                    "leaf": 0.00439346349
                  }
                ]
              }
            ]
          },
          {
            "nodeid": 2,
            "depth": 1,
            "split": "male",
            "split_condition": 1,
            "yes": 5,
            "no": 6,
            "missing": 6,
            "children": [
              {
                "nodeid": 5,
                "depth": 2,
                "split": "race_ethnicityBlack",
                "split_condition": 1,
                "yes": 11,
                "no": 12,
                "missing": 12,
                "children": [
                  {
                    "nodeid": 11,
                    "leaf": -0.041030101499999999
                  },
                  {
                    "nodeid": 12,
                    "leaf": -0.0092228734900000001
                  }
                ]
              },
              {
                "nodeid": 6,
                "depth": 2,
                "split": "incomepir",
                "split_condition": 4.3800001100000001,
                "yes": 13,
                "no": 14,
                "missing": 14,
                "children": [
                  {
                    "nodeid": 13,
                    "leaf": 0.00103751139
                  },
                  {
                    "nodeid": 14,
                    "leaf": -0.021365266300000001
                  }
                ]
              }
            ]
          }
        ]
      },
      {
        "nodeid": 0,
        "depth": 0,
        "split": "birth_year",
        "split_condition": 1971,
        "yes": 1,
        "no": 2,
        "missing": 2,
        "children": [
          {
            "nodeid": 1,
            "depth": 1,
            "split": "birth_year",
            "split_condition": 1948,
            "yes": 3,
            "no": 4,
            "missing": 4,
            "children": [
              {
                "nodeid": 3,
                "depth": 2,
                "split": "race_ethnicityWhite",
                "split_condition": 1,
                "yes": 7,
                "no": 8,
                "missing": 8,
                "children": [
                  {
                    "nodeid": 7,
                    "leaf": 0.0115380576
                  },
                  {
                    "nodeid": 8,
                    "leaf": -0.045308519200000001
                  }
                ]
              },
              {
                "nodeid": 4,
                "depth": 2,
                "split": "incomepir",
                "split_condition": 3.7699999800000001,
                "yes": 9,
                "no": 10,
                "missing": 10,
                "children": [
                  {
                    "nodeid": 9,
                    "leaf": 0.037084244199999998
                  },
                  {
                    "nodeid": 10,
                    "leaf": -0.0093928510299999997
                  }
                ]
              }
            ]
          },
          {
            "nodeid": 2,
            "depth": 1,
            "split": "birth_year",
            "split_condition": 1982,
            "yes": 5,
            "no": 6,
            "missing": 6,
            "children": [
              {
                "nodeid": 5,
                "depth": 2,
                "split": "race_ethnicityWhite",
                "split_condition": 1,
                "yes": 11,
                "no": 12,
                "missing": 12,
                "children": [
                  {
                    "nodeid": 11,
                    "leaf": -0.046146098500000003
                  },
                  {
                    "nodeid": 12,
                    "leaf": 0.0035824738400000002
                  }
                ]
              },
              {
                "nodeid": 6,
                "depth": 2,
                "split": "birth_year",
                "split_condition": 1995,
                "yes": 13,
                "no": 14,
                "missing": 14,
                "children": [
                  {
                    "nodeid": 13,
                    "leaf": -0.045200508100000002
                  },
                  {
                    "nodeid": 14,
                    "leaf": -0.064753465400000002
                  }
                ]
              }
            ]
          }
        ]
      },
      {
        "nodeid": 0,
        "depth": 0,
        "split": "incomepir",
        "split_condition": 2.4500000499999999,
        "yes": 1,
        "no": 2,
        "missing": 2,
        "children": [
          {
            "nodeid": 1,
            "depth": 1,
            "split": "born_usa",
            "split_condition": 1,
            "yes": 3,
            "no": 4,
            "missing": 4,
            "children": [
              {
                "nodeid": 3,
                "depth": 2,
                "split": "race_ethnicityBlack",
                "split_condition": 1,
                "yes": 7,
                "no": 8,
                "missing": 8,
                "children": [
                  {
                    "nodeid": 7,
                    "leaf": -0.022908350500000001
                  },
                  {
                    "nodeid": 8,
                    "leaf": 0.0243603755
                  }
                ]
              },
              {
                "nodeid": 4,
                "depth": 2,
                "split": "male",
                "split_condition": 1,
                "yes": 9,
                "no": 10,
                "missing": 10,
                "children": [
                  {
                    "nodeid": 9,
                    "leaf": 0.0028784566099999999
                  },
                  {
                    "nodeid": 10,
                    "leaf": 0.023103643199999999
                  }
                ]
              }
            ]
          },
          {
            "nodeid": 2,
            "depth": 1,
            "split": "race_ethnicityBlack",
            "split_condition": 1,
            "yes": 5,
            "no": 6,
            "missing": 6,
            "children": [
              {
                "nodeid": 5,
                "depth": 2,
                "split": "male",
                "split_condition": 1,
                "yes": 11,
                "no": 12,
                "missing": 12,
                "children": [
                  {
                    "nodeid": 11,
                    "leaf": -0.040293019300000003
                  },
                  {
                    "nodeid": 12,
                    "leaf": -0.019894292599999999
                  }
                ]
              },
              {
                "nodeid": 6,
                "depth": 2,
                "split": "male",
                "split_condition": 1,
                "yes": 13,
                "no": 14,
                "missing": 14,
                "children": [
                  {
                    "nodeid": 13,
                    "leaf": -0.019320314799999998
                  },
                  {
                    "nodeid": 14,
                    "leaf": 0.019322292899999999
                  }
                ]
              }
            ]
          }
        ]
      },
      {
        "nodeid": 0,
        "depth": 0,
        "split": "birth_year",
        "split_condition": 1968,
        "yes": 1,
        "no": 2,
        "missing": 2,
        "children": [
          {
            "nodeid": 1,
            "depth": 1,
            "split": "birth_year",
            "split_condition": 1945,
            "yes": 3,
            "no": 4,
            "missing": 4,
            "children": [
              {
                "nodeid": 3,
                "depth": 2,
                "split": "incomepir",
                "split_condition": 3.47000003,
                "yes": 7,
                "no": 8,
                "missing": 8,
                "children": [
                  {
                    "nodeid": 7,
                    "leaf": -0.0011398381299999999
                  },
                  {
                    "nodeid": 8,
                    "leaf": -0.053947795200000002
                  }
                ]
              },
              {
                "nodeid": 4,
                "depth": 2,
                "split": "born_usa",
                "split_condition": 1,
                "yes": 9,
                "no": 10,
                "missing": 10,
                "children": [
                  {
                    "nodeid": 9,
                    "leaf": -0.0112463171
                  },
                  {
                    "nodeid": 10,
                    "leaf": 0.034172974500000002
                  }
                ]
              }
            ]
          },
          {
            "nodeid": 2,
            "depth": 1,
            "split": "birth_year",
            "split_condition": 1985,
            "yes": 5,
            "no": 6,
            "missing": 6,
            "children": [
              {
                "nodeid": 5,
                "depth": 2,
                "split": "incomepir",
                "split_condition": 1.30999994,
                "yes": 11,
                "no": 12,
                "missing": 12,
                "children": [
                  {
                    "nodeid": 11,
                    "leaf": 0.0051793795999999998
                  },
                  {
                    "nodeid": 12,
                    "leaf": -0.043422702700000003
                  }
                ]
              },
              {
                "nodeid": 6,
                "depth": 2,
                "split": "birth_year",
                "split_condition": 1995,
                "yes": 13,
                "no": 14,
                "missing": 14,
                "children": [
                  {
                    "nodeid": 13,
                    "leaf": -0.046077668699999998
                  },
                  {
                    "nodeid": 14,
                    "leaf": -0.063679151200000006
                  }
                ]
              }
            ]
          }
        ]
      },
      {
        "nodeid": 0,
        "depth": 0,
        "split": "birth_year",
        "split_condition": 1971,
        "yes": 1,
        "no": 2,
        "missing": 2,
        "children": [
          {
            "nodeid": 1,
            "depth": 1,
            "split": "incomepir",
            "split_condition": 1.1699999599999999,
            "yes": 3,
            "no": 4,
            "missing": 4,
            "children": [
              {
                "nodeid": 3,
                "depth": 2,
                "split": "born_usa",
                "split_condition": 1,
                "yes": 7,
                "no": 8,
                "missing": 8,
                "children": [
                  {
                    "nodeid": 7,
                    "leaf": -0.0064749545400000002
                  },
                  {
                    "nodeid": 8,
                    "leaf": 0.044470164899999998
                  }
                ]
              },
              {
                "nodeid": 4,
                "depth": 2,
                "split": "birth_year",
                "split_condition": 1945,
                "yes": 9,
                "no": 10,
                "missing": 10,
                "children": [
                  {
                    "nodeid": 9,
                    "leaf": -0.026064867200000001
                  },
                  {
                    "nodeid": 10,
                    "leaf": 0.013177387400000001
                  }
                ]
              }
            ]
          },
          {
            "nodeid": 2,
            "depth": 1,
            "split": "birth_year",
            "split_condition": 1985,
            "yes": 5,
            "no": 6,
            "missing": 6,
            "children": [
              {
                "nodeid": 5,
                "depth": 2,
                "split": "incomepir",
                "split_condition": 1.0399999600000001,
                "yes": 11,
                "no": 12,
                "missing": 12,
                "children": [
                  {
                    "nodeid": 11,
                    "leaf": 0.0029593280100000002
                  },
                  {
                    "nodeid": 12,
                    "leaf": -0.041390262499999997
                  }
                ]
              },
              {
                "nodeid": 6,
                "depth": 2,
                "split": "birth_year",
                "split_condition": 1993,
                "yes": 13,
                "no": 14,
                "missing": 14,
                "children": [
                  {
                    "nodeid": 13,
                    "leaf": -0.047513455199999999
                  },
                  {
                    "nodeid": 14,
                    "leaf": -0.063375160099999994
                  }
                ]
              }
            ]
          }
        ]
      },
      {
        "nodeid": 0,
        "depth": 0,
        "split": "birth_year",
        "split_condition": 1977,
        "yes": 1,
        "no": 2,
        "missing": 2,
        "children": [
          {
            "nodeid": 1,
            "depth": 1,
            "split": "incomepir",
            "split_condition": 1.89999998,
            "yes": 3,
            "no": 4,
            "missing": 4,
            "children": [
              {
                "nodeid": 3,
                "depth": 2,
                "split": "birth_year",
                "split_condition": 1938,
                "yes": 7,
                "no": 8,
                "missing": 8,
                "children": [
                  {
                    "nodeid": 7,
                    "leaf": -0.023213556
                  },
                  {
                    "nodeid": 8,
                    "leaf": 0.032708514500000001
                  }
                ]
              },
              {
                "nodeid": 4,
                "depth": 2,
                "split": "birth_year",
                "split_condition": 1945,
                "yes": 9,
                "no": 10,
                "missing": 10,
                "children": [
                  {
                    "nodeid": 9,
                    "leaf": -0.034801091999999999
                  },
                  {
                    "nodeid": 10,
                    "leaf": 0.0045758062
                  }
                ]
              }
            ]
          },
          {
            "nodeid": 2,
            "depth": 1,
            "split": "birth_year",
            "split_condition": 1995,
            "yes": 5,
            "no": 6,
            "missing": 6,
            "children": [
              {
                "nodeid": 5,
                "depth": 2,
                "split": "race_ethnicityHispanic",
                "split_condition": 1,
                "yes": 11,
                "no": 12,
                "missing": 12,
                "children": [
                  {
                    "nodeid": 11,
                    "leaf": -0.030604472399999999
                  },
                  {
                    "nodeid": 12,
                    "leaf": -0.068104624700000005
                  }
                ]
              },
              {
                "nodeid": 6,
                "leaf": -0.064065478699999998
              }
            ]
          }
        ]
      },
      {
        "nodeid": 0,
        "depth": 0,
        "split": "birth_year",
        "split_condition": 1968,
        "yes": 1,
        "no": 2,
        "missing": 2,
        "children": [
          {
            "nodeid": 1,
            "depth": 1,
            "split": "birth_year",
            "split_condition": 1945,
            "yes": 3,
            "no": 4,
            "missing": 4,
            "children": [
              {
                "nodeid": 3,
                "depth": 2,
                "split": "race_ethnicityWhite",
                "split_condition": 1,
                "yes": 7,
                "no": 8,
                "missing": 8,
                "children": [
                  {
                    "nodeid": 7,
                    "leaf": 0.0117001841
                  },
                  {
                    "nodeid": 8,
                    "leaf": -0.0383310132
                  }
                ]
              },
              {
                "nodeid": 4,
                "depth": 2,
                "split": "incomepir",
                "split_condition": 2.8900001,
                "yes": 9,
                "no": 10,
                "missing": 10,
                "children": [
                  {
                    "nodeid": 9,
                    "leaf": 0.035101376500000003
                  },
                  {
                    "nodeid": 10,
                    "leaf": 0.0047582765100000002
                  }
                ]
              }
            ]
          },
          {
            "nodeid": 2,
            "depth": 1,
            "split": "birth_year",
            "split_condition": 1989,
            "yes": 5,
            "no": 6,
            "missing": 6,
            "children": [
              {
                "nodeid": 5,
                "depth": 2,
                "split": "incomepir",
                "split_condition": 2.4500000499999999,
                "yes": 11,
                "no": 12,
                "missing": 12,
                "children": [
                  {
                    "nodeid": 11,
                    "leaf": -0.00614033593
                  },
                  {
                    "nodeid": 12,
                    "leaf": -0.058405648900000003
                  }
                ]
              },
              {
                "nodeid": 6,
                "depth": 2,
                "split": "race_ethnicityWhite",
                "split_condition": 1,
                "yes": 13,
                "no": 14,
                "missing": 14,
                "children": [
                  {
                    "nodeid": 13,
                    "leaf": -0.061809685099999997
                  },
                  {
                    "nodeid": 14,
                    "leaf": -0.045483402899999997
                  }
                ]
              }
            ]
          }
        ]
      },
      {
        "nodeid": 0,
        "depth": 0,
        "split": "incomepir",
        "split_condition": 1.0399999600000001,
        "yes": 1,
        "no": 2,
        "missing": 2,
        "children": [
          {
            "nodeid": 1,
            "depth": 1,
            "split": "race_ethnicityHispanic",
            "split_condition": 1,
            "yes": 3,
            "no": 4,
            "missing": 4,
            "children": [
              {
                "nodeid": 3,
                "depth": 2,
                "split": "male",
                "split_condition": 1,
                "yes": 7,
                "no": 8,
                "missing": 8,
                "children": [
                  {
                    "nodeid": 7,
                    "leaf": 0.012663289899999999
                  },
                  {
                    "nodeid": 8,
                    "leaf": 0.032496370400000002
                  }
                ]
              },
              {
                "nodeid": 4,
                "depth": 2,
                "split": "born_usa",
                "split_condition": 1,
                "yes": 9,
                "no": 10,
                "missing": 10,
                "children": [
                  {
                    "nodeid": 9,
                    "leaf": -0.041272804099999998
                  },
                  {
                    "nodeid": 10,
                    "leaf": -0.0047052684200000004
                  }
                ]
              }
            ]
          },
          {
            "nodeid": 2,
            "depth": 1,
            "split": "male",
            "split_condition": 1,
            "yes": 5,
            "no": 6,
            "missing": 6,
            "children": [
              {
                "nodeid": 5,
                "depth": 2,
                "split": "race_ethnicityAsian/Other",
                "split_condition": 1,
                "yes": 11,
                "no": 12,
                "missing": 12,
                "children": [
                  {
                    "nodeid": 11,
                    "leaf": -0.0167543385
                  },
                  {
                    "nodeid": 12,
                    "leaf": -0.043878801199999998
                  }
                ]
              },
              {
                "nodeid": 6,
                "depth": 2,
                "split": "incomepir",
                "split_condition": 4.3800001100000001,
                "yes": 13,
                "no": 14,
                "missing": 14,
                "children": [
                  {
                    "nodeid": 13,
                    "leaf": 0.0067844735499999996
                  },
                  {
                    "nodeid": 14,
                    "leaf": -0.018568323899999999
                  }
                ]
              }
            ]
          }
        ]
      },
      {
        "nodeid": 0,
        "depth": 0,
        "split": "birth_year",
        "split_condition": 1977,
        "yes": 1,
        "no": 2,
        "missing": 2,
        "children": [
          {
            "nodeid": 1,
            "depth": 1,
            "split": "birth_year",
            "split_condition": 1943,
            "yes": 3,
            "no": 4,
            "missing": 4,
            "children": [
              {
                "nodeid": 3,
                "depth": 2,
                "split": "race_ethnicityBlack",
                "split_condition": 1,
                "yes": 7,
                "no": 8,
                "missing": 8,
                "children": [
                  {
                    "nodeid": 7,
                    "leaf": -0.028358811500000001
                  },
                  {
                    "nodeid": 8,
                    "leaf": 0.0130311204
                  }
                ]
              },
              {
                "nodeid": 4,
                "depth": 2,
                "split": "birth_year",
                "split_condition": 1966,
                "yes": 9,
                "no": 10,
                "missing": 10,
                "children": [
                  {
                    "nodeid": 9,
                    "leaf": 0.027584075900000001
                  },
                  {
                    "nodeid": 10,
                    "leaf": -0.0043762619599999998
                  }
                ]
              }
            ]
          },
          {
            "nodeid": 2,
            "depth": 1,
            "split": "birth_year",
            "split_condition": 1992,
            "yes": 5,
            "no": 6,
            "missing": 6,
            "children": [
              {
                "nodeid": 5,
                "depth": 2,
                "split": "race_ethnicityHispanic",
                "split_condition": 1,
                "yes": 11,
                "no": 12,
                "missing": 12,
                "children": [
                  {
                    "nodeid": 11,
                    "leaf": -0.025933587899999999
                  },
                  {
                    "nodeid": 12,
                    "leaf": -0.060607891499999997
                  }
                ]
              },
              {
                "nodeid": 6,
                "depth": 2,
                "split": "birth_year",
                "split_condition": 1998,
                "yes": 13,
                "no": 14,
                "missing": 14,
                "children": [
                  {
                    "nodeid": 13,
                    "leaf": -0.053875573000000003
                  },
                  {
                    "nodeid": 14,
                    "leaf": -0.062408696899999998
                  }
                ]
              }
            ]
          }
        ]
      },
      {
        "nodeid": 0,
        "depth": 0,
        "split": "incomepir",
        "split_condition": 1.1699999599999999,
        "yes": 1,
        "no": 2,
        "missing": 2,
        "children": [
          {
            "nodeid": 1,
            "depth": 1,
            "split": "born_usa",
            "split_condition": 1,
            "yes": 3,
            "no": 4,
            "missing": 4,
            "children": [
              {
                "nodeid": 3,
                "depth": 2,
                "split": "incomepir",
                "split_condition": 0.109999999,
                "yes": 7,
                "no": 8,
                "missing": 8,
                "children": [
                  {
                    "nodeid": 7,
                    "leaf": 0.041287671800000002
                  },
                  {
                    "nodeid": 8,
                    "leaf": -0.027392277499999999
                  }
                ]
              },
              {
                "nodeid": 4,
                "depth": 2,
                "split": "male",
                "split_condition": 1,
                "yes": 9,
                "no": 10,
                "missing": 10,
                "children": [
                  {
                    "nodeid": 9,
                    "leaf": 0.013773257800000001
                  },
                  {
                    "nodeid": 10,
                    "leaf": 0.026972809800000001
                  }
                ]
              }
            ]
          },
          {
            "nodeid": 2,
            "depth": 1,
            "split": "race_ethnicityBlack",
            "split_condition": 1,
            "yes": 5,
            "no": 6,
            "missing": 6,
            "children": [
              {
                "nodeid": 5,
                "depth": 2,
                "split": "male",
                "split_condition": 1,
                "yes": 11,
                "no": 12,
                "missing": 12,
                "children": [
                  {
                    "nodeid": 11,
                    "leaf": -0.029546612900000001
                  },
                  {
                    "nodeid": 12,
                    "leaf": -0.0056617576599999999
                  }
                ]
              },
              {
                "nodeid": 6,
                "depth": 2,
                "split": "male",
                "split_condition": 1,
                "yes": 13,
                "no": 14,
                "missing": 14,
                "children": [
                  {
                    "nodeid": 13,
                    "leaf": -0.0013176797699999999
                  },
                  {
                    "nodeid": 14,
                    "leaf": 0.0174666196
                  }
                ]
              }
            ]
          }
        ]
      },
      {
        "nodeid": 0,
        "depth": 0,
        "split": "birth_year",
        "split_condition": 1968,
        "yes": 1,
        "no": 2,
        "missing": 2,
        "children": [
          {
            "nodeid": 1,
            "depth": 1,
            "split": "birth_year",
            "split_condition": 1948,
            "yes": 3,
            "no": 4,
            "missing": 4,
            "children": [
              {
                "nodeid": 3,
                "depth": 2,
                "split": "race_ethnicityWhite",
                "split_condition": 1,
                "yes": 7,
                "no": 8,
                "missing": 8,
                "children": [
                  {
                    "nodeid": 7,
                    "leaf": 0.015578419
                  },
                  {
                    "nodeid": 8,
                    "leaf": -0.040472965700000002
                  }
                ]
              },
              {
                "nodeid": 4,
                "depth": 2,
                "split": "born_usa",
                "split_condition": 1,
                "yes": 9,
                "no": 10,
                "missing": 10,
                "children": [
                  {
                    "nodeid": 9,
                    "leaf": -0.0155714033
                  },
                  {
                    "nodeid": 10,
                    "leaf": 0.030611103399999999
                  }
                ]
              }
            ]
          },
          {
            "nodeid": 2,
            "depth": 1,
            "split": "birth_year",
            "split_condition": 1989,
            "yes": 5,
            "no": 6,
            "missing": 6,
            "children": [
              {
                "nodeid": 5,
                "depth": 2,
                "split": "incomepir",
                "split_condition": 2.4300000700000002,
                "yes": 11,
                "no": 12,
                "missing": 12,
                "children": [
                  {
                    "nodeid": 11,
                    "leaf": -0.00701974565
                  },
                  {
                    "nodeid": 12,
                    "leaf": -0.052718270599999999
                  }
                ]
              },
              {
                "nodeid": 6,
                "depth": 2,
                "split": "birth_year",
                "split_condition": 1998,
                "yes": 13,
                "no": 14,
                "missing": 14,
                "children": [
                  {
                    "nodeid": 13,
                    "leaf": -0.042385641500000001
                  },
                  {
                    "nodeid": 14,
                    "leaf": -0.061707258199999997
                  }
                ]
              }
            ]
          }
        ]
      },
      {
        "nodeid": 0,
        "depth": 0,
        "split": "birth_year",
        "split_condition": 1983,
        "yes": 1,
        "no": 2,
        "missing": 2,
        "children": [
          {
            "nodeid": 1,
            "depth": 1,
            "split": "incomepir",
            "split_condition": 1.6299999999999999,
            "yes": 3,
            "no": 4,
            "missing": 4,
            "children": [
              {
                "nodeid": 3,
                "depth": 2,
                "split": "born_usa",
                "split_condition": 1,
                "yes": 7,
                "no": 8,
                "missing": 8,
                "children": [
                  {
                    "nodeid": 7,
                    "leaf": -0.0130685717
                  },
                  {
                    "nodeid": 8,
                    "leaf": 0.030578425199999999
                  }
                ]
              },
              {
                "nodeid": 4,
                "depth": 2,
                "split": "birth_year",
                "split_condition": 1966,
                "yes": 9,
                "no": 10,
                "missing": 10,
                "children": [
                  {
                    "nodeid": 9,
                    "leaf": 0.0046160868400000003
                  },
                  {
                    "nodeid": 10,
                    "leaf": -0.032101344300000001
                  }
                ]
              }
            ]
          },
          {
            "nodeid": 2,
            "depth": 1,
            "split": "birth_year",
            "split_condition": 1989,
            "yes": 5,
            "no": 6,
            "missing": 6,
            "children": [
              {
                "nodeid": 5,
                "depth": 2,
                "split": "incomepir",
                "split_condition": 0.37000000500000002,
                "yes": 11,
                "no": 12,
                "missing": 12,
                "children": [
                  {
                    "nodeid": 11,
                    "leaf": 0.0096403583899999992
                  },
                  {
                    "nodeid": 12,
                    "leaf": -0.040191080400000002
                  }
                ]
              },
              {
                "nodeid": 6,
                "depth": 2,
                "split": "race_ethnicityWhite",
                "split_condition": 1,
                "yes": 13,
                "no": 14,
                "missing": 14,
                "children": [
                  {
                    "nodeid": 13,
                    "leaf": -0.062034953400000002
                  },
                  {
                    "nodeid": 14,
                    "leaf": -0.046721134300000002
                  }
                ]
              }
            ]
          }
        ]
      },
      {
        "nodeid": 0,
        "depth": 0,
        "split": "birth_year",
        "split_condition": 1977,
        "yes": 1,
        "no": 2,
        "missing": 2,
        "children": [
          {
            "nodeid": 1,
            "depth": 1,
            "split": "incomepir",
            "split_condition": 3.5999998999999998,
            "yes": 3,
            "no": 4,
            "missing": 4,
            "children": [
              {
                "nodeid": 3,
                "depth": 2,
                "split": "birth_year",
                "split_condition": 1949,
                "yes": 7,
                "no": 8,
                "missing": 8,
                "children": [
                  {
                    "nodeid": 7,
                    "leaf": -0.0031930361899999999
                  },
                  {
                    "nodeid": 8,
                    "leaf": 0.029039671600000001
                  }
                ]
              },
              {
                "nodeid": 4,
                "depth": 2,
                "split": "birth_year",
                "split_condition": 1963,
                "yes": 9,
                "no": 10,
                "missing": 10,
                "children": [
                  {
                    "nodeid": 9,
                    "leaf": 0.0021417797499999999
                  },
                  {
                    "nodeid": 10,
                    "leaf": -0.049621831599999999
                  }
                ]
              }
            ]
          },
          {
            "nodeid": 2,
            "depth": 1,
            "split": "birth_year",
            "split_condition": 1995,
            "yes": 5,
            "no": 6,
            "missing": 6,
            "children": [
              {
                "nodeid": 5,
                "depth": 2,
                "split": "race_ethnicityHispanic",
                "split_condition": 1,
                "yes": 11,
                "no": 12,
                "missing": 12,
                "children": [
                  {
                    "nodeid": 11,
                    "leaf": -0.020568585
                  },
                  {
                    "nodeid": 12,
                    "leaf": -0.058891743400000002
                  }
                ]
              },
              {
                "nodeid": 6,
                "leaf": -0.060522593600000001
              }
            ]
          }
        ]
      },
      {
        "nodeid": 0,
        "depth": 0,
        "split": "birth_year",
        "split_condition": 1968,
        "yes": 1,
        "no": 2,
        "missing": 2,
        "children": [
          {
            "nodeid": 1,
            "depth": 1,
            "split": "birth_year",
            "split_condition": 1949,
            "yes": 3,
            "no": 4,
            "missing": 4,
            "children": [
              {
                "nodeid": 3,
                "depth": 2,
                "split": "race_ethnicityWhite",
                "split_condition": 1,
                "yes": 7,
                "no": 8,
                "missing": 8,
                "children": [
                  {
                    "nodeid": 7,
                    "leaf": 0.015081646900000001
                  },
                  {
                    "nodeid": 8,
                    "leaf": -0.0345910527
                  }
                ]
              },
              {
                "nodeid": 4,
                "depth": 2,
                "split": "incomepir",
                "split_condition": 2.1500001000000002,
                "yes": 9,
                "no": 10,
                "missing": 10,
                "children": [
                  {
                    "nodeid": 9,
                    "leaf": 0.033849224400000003
                  },
                  {
                    "nodeid": 10,
                    "leaf": 0.0033326053500000001
                  }
                ]
              }
            ]
          },
          {
            "nodeid": 2,
            "depth": 1,
            "split": "incomepir",
            "split_condition": 2.4500000499999999,
            "yes": 5,
            "no": 6,
            "missing": 6,
            "children": [
              {
                "nodeid": 5,
                "depth": 2,
                "split": "birth_year",
                "split_condition": 1994,
                "yes": 11,
                "no": 12,
                "missing": 12,
                "children": [
                  {
                    "nodeid": 11,
                    "leaf": -0.0091173732699999996
                  },
                  {
                    "nodeid": 12,
                    "leaf": -0.060580421199999998
                  }
                ]
              },
              {
                "nodeid": 6,
                "depth": 2,
                "split": "birth_year",
                "split_condition": 1978,
                "yes": 13,
                "no": 14,
                "missing": 14,
                "children": [
                  {
                    "nodeid": 13,
                    "leaf": -0.065091930300000003
                  },
                  {
                    "nodeid": 14,
                    "leaf": -0.0507602952
                  }
                ]
              }
            ]
          }
        ]
      },
      {
        "nodeid": 0,
        "depth": 0,
        "split": "birth_year",
        "split_condition": 1975,
        "yes": 1,
        "no": 2,
        "missing": 2,
        "children": [
          {
            "nodeid": 1,
            "depth": 1,
            "split": "born_usa",
            "split_condition": 1,
            "yes": 3,
            "no": 4,
            "missing": 4,
            "children": [
              {
                "nodeid": 3,
                "depth": 2,
                "split": "birth_year",
                "split_condition": 1954,
                "yes": 7,
                "no": 8,
                "missing": 8,
                "children": [
                  {
                    "nodeid": 7,
                    "leaf": 0.0033163041800000001
                  },
                  {
                    "nodeid": 8,
                    "leaf": -0.033323503999999997
                  }
                ]
              },
              {
                "nodeid": 4,
                "depth": 2,
                "split": "birth_year",
                "split_condition": 1942,
                "yes": 9,
                "no": 10,
                "missing": 10,
                "children": [
                  {
                    "nodeid": 9,
                    "leaf": -0.0165568795
                  },
                  {
                    "nodeid": 10,
                    "leaf": 0.022754747400000001
                  }
                ]
              }
            ]
          },
          {
            "nodeid": 2,
            "depth": 1,
            "split": "birth_year",
            "split_condition": 1985,
            "yes": 5,
            "no": 6,
            "missing": 6,
            "children": [
              {
                "nodeid": 5,
                "depth": 2,
                "split": "race_ethnicityWhite",
                "split_condition": 1,
                "yes": 11,
                "no": 12,
                "missing": 12,
                "children": [
                  {
                    "nodeid": 11,
                    "leaf": -0.0431796573
                  },
                  {
                    "nodeid": 12,
                    "leaf": 0.0071112387800000001
                  }
                ]
              },
              {
                "nodeid": 6,
                "depth": 2,
                "split": "birth_year",
                "split_condition": 1998,
                "yes": 13,
                "no": 14,
                "missing": 14,
                "children": [
                  {
                    "nodeid": 13,
                    "leaf": -0.041433643499999999
                  },
                  {
                    "nodeid": 14,
                    "leaf": -0.059225481000000003
                  }
                ]
              }
            ]
          }
        ]
      },
      {
        "nodeid": 0,
        "depth": 0,
        "split": "birth_year",
        "split_condition": 1983,
        "yes": 1,
        "no": 2,
        "missing": 2,
        "children": [
          {
            "nodeid": 1,
            "depth": 1,
            "split": "incomepir",
            "split_condition": 1.6299999999999999,
            "yes": 3,
            "no": 4,
            "missing": 4,
            "children": [
              {
                "nodeid": 3,
                "depth": 2,
                "split": "born_usa",
                "split_condition": 1,
                "yes": 7,
                "no": 8,
                "missing": 8,
                "children": [
                  {
                    "nodeid": 7,
                    "leaf": -0.00722010154
                  },
                  {
                    "nodeid": 8,
                    "leaf": 0.026330549299999999
                  }
                ]
              },
              {
                "nodeid": 4,
                "depth": 2,
                "split": "birth_year",
                "split_condition": 1967,
                "yes": 9,
                "no": 10,
                "missing": 10,
                "children": [
                  {
                    "nodeid": 9,
                    "leaf": 0.0016011715599999999
                  },
                  {
                    "nodeid": 10,
                    "leaf": -0.028510788499999998
                  }
                ]
              }
            ]
          },
          {
            "nodeid": 2,
            "depth": 1,
            "split": "birth_year",
            "split_condition": 1991,
            "yes": 5,
            "no": 6,
            "missing": 6,
            "children": [
              {
                "nodeid": 5,
                "depth": 2,
                "split": "race_ethnicityHispanic",
                "split_condition": 1,
                "yes": 11,
                "no": 12,
                "missing": 12,
                "children": [
                  {
                    "nodeid": 11,
                    "leaf": -0.013693983700000001
                  },
                  {
                    "nodeid": 12,
                    "leaf": -0.062726147499999996
                  }
                ]
              },
              {
                "nodeid": 6,
                "depth": 2,
                "split": "incomepir",
                "split_condition": 5,
                "yes": 13,
                "no": 14,
                "missing": 14,
                "children": [
                  {
                    "nodeid": 13,
                    "leaf": -0.057358484699999997
                  },
                  {
                    "nodeid": 14,
                    "leaf": -0.033801283699999997
                  }
                ]
              }
            ]
          }
        ]
      },
      {
        "nodeid": 0,
        "depth": 0,
        "split": "birth_year",
        "split_condition": 1968,
        "yes": 1,
        "no": 2,
        "missing": 2,
        "children": [
          {
            "nodeid": 1,
            "depth": 1,
            "split": "birth_year",
            "split_condition": 1949,
            "yes": 3,
            "no": 4,
            "missing": 4,
            "children": [
              {
                "nodeid": 3,
                "depth": 2,
                "split": "race_ethnicityWhite",
                "split_condition": 1,
                "yes": 7,
                "no": 8,
                "missing": 8,
                "children": [
                  {
                    "nodeid": 7,
                    "leaf": 0.0146194054
                  },
                  {
                    "nodeid": 8,
                    "leaf": -0.027713719800000002
                  }
                ]
              },
              {
                "nodeid": 4,
                "depth": 2,
                "split": "incomepir",
                "split_condition": 4.55999994,
                "yes": 9,
                "no": 10,
                "missing": 10,
                "children": [
                  {
                    "nodeid": 9,
                    "leaf": 0.027090860500000001
                  },
                  {
                    "nodeid": 10,
                    "leaf": -0.0091367503599999993
                  }
                ]
              }
            ]
          },
          {
            "nodeid": 2,
            "depth": 1,
            "split": "birth_year",
            "split_condition": 1991,
            "yes": 5,
            "no": 6,
            "missing": 6,
            "children": [
              {
                "nodeid": 5,
                "depth": 2,
                "split": "incomepir",
                "split_condition": 2.77999997,
                "yes": 11,
                "no": 12,
                "missing": 12,
                "children": [
                  {
                    "nodeid": 11,
                    "leaf": -0.0098811071399999995
                  },
                  {
                    "nodeid": 12,
                    "leaf": -0.0492769256
                  }
                ]
              },
              {
                "nodeid": 6,
                "depth": 2,
                "split": "birth_year",
                "split_condition": 1998,
                "yes": 13,
                "no": 14,
                "missing": 14,
                "children": [
                  {
                    "nodeid": 13,
                    "leaf": -0.040205873500000003
                  },
                  {
                    "nodeid": 14,
                    "leaf": -0.058208078099999998
                  }
                ]
              }
            ]
          }
        ]
      },
      {
        "nodeid": 0,
        "depth": 0,
        "split": "birth_year",
        "split_condition": 1971,
        "yes": 1,
