[
  { "nodeid": 0, "depth": 0, "split": "birth_year", "split_condition": 1977, "yes": 1, "no": 2, "missing": 2 , "children": [
    { "nodeid": 1, "depth": 1, "split": "incomepir", "split_condition": 1.79999995, "yes": 3, "no": 4, "missing": 4 , "children": [
      { "nodeid": 3, "depth": 2, "split": "birth_year", "split_condition": 1948, "yes": 7, "no": 8, "missing": 8 , "children": [
        { "nodeid": 7, "leaf": 0.00977613498 }, 
        { "nodeid": 8, "leaf": 0.0631247833 }
      ]}, 
      { "nodeid": 4, "depth": 2, "split": "race_ethnicityBlack", "split_condition": 1, "yes": 9, "no": 10, "missing": 10 , "children": [
        { "nodeid": 9, "leaf": -0.00982345082 }, 
        { "nodeid": 10, "leaf": 0.0390946716 }
      ]}
    ]}, 
    { "nodeid": 2, "depth": 1, "split": "birth_year", "split_condition": 1983, "yes": 5, "no": 6, "missing": 6 , "children": [
      { "nodeid": 5, "depth": 2, "split": "incomepir", "split_condition": 1.63, "yes": 11, "no": 12, "missing": 12 , "children": [
        { "nodeid": 11, "leaf": -0.0269814637 }, 
        { "nodeid": 12, "leaf": -0.0726749226 }
      ]}, 
      { "nodeid": 6, "depth": 2, "split": "birth_year", "split_condition": 1995, "yes": 13, "no": 14, "missing": 14 , "children": [
        { "nodeid": 13, "leaf": -0.0792730972 }, 
        { "nodeid": 14, "leaf": -0.0986190811 }
      ]}
    ]}
  ]},
  { "nodeid": 0, "depth": 0, "split": "birth_year", "split_condition": 1977, "yes": 1, "no": 2, "missing": 2 , "children": [
    { "nodeid": 1, "depth": 1, "split": "incomepir", "split_condition": 2.3900001, "yes": 3, "no": 4, "missing": 4 , "children": [
      { "nodeid": 3, "depth": 2, "split": "born_usa", "split_condition": 1, "yes": 7, "no": 8, "missing": 8 , "children": [
        { "nodeid": 7, "leaf": -0.00835213065 }, 
        { "nodeid": 8, "leaf": 0.0547870398 }
      ]}, 
      { "nodeid": 4, "depth": 2, "split": "birth_year", "split_condition": 1966, "yes": 9, "no": 10, "missing": 10 , "children": [
        { "nodeid": 9, "leaf": 0.00670807064 }, 
        { "nodeid": 10, "leaf": -0.0581717379 }
      ]}
    ]}, 
    { "nodeid": 2, "depth": 1, "split": "birth_year", "split_condition": 1985, "yes": 5, "no": 6, "missing": 6 , "children": [
      { "nodeid": 5, "depth": 2, "split": "race_ethnicityWhite", "split_condition": 1, "yes": 11, "no": 12, "missing": 12 , "children": [
        { "nodeid": 11, "leaf": -0.0755686685 }, 
        { "nodeid": 12, "leaf": -0.0239823125 }
      ]}, 
      { "nodeid": 6, "depth": 2, "split": "birth_year", "split_condition": 1995, "yes": 13, "no": 14, "missing": 14 , "children": [
        { "nodeid": 13, "leaf": -0.0744257048 }, 
        { "nodeid": 14, "leaf": -0.0925878137 }
      ]}
    ]}
  ]},
  { "nodeid": 0, "depth": 0, "split": "birth_year", "split_condition": 1975, "yes": 1, "no": 2, "missing": 2 , "children": [
    { "nodeid": 1, "depth": 1, "split": "birth_year", "split_condition": 1945, "yes": 3, "no": 4, "missing": 4 , "children": [
      { "nodeid": 3, "depth": 2, "split": "race_ethnicityWhite", "split_condition": 1, "yes": 7, "no": 8, "missing": 8 , "children": [
        { "nodeid": 7, "leaf": 0.0111652296 }, 
        { "nodeid": 8, "leaf": -0.058203917 }
      ]}, 
      { "nodeid": 4, "depth": 2, "split": "born_usa", "split_condition": 1, "yes": 9, "no": 10, "missing": 10 , "children": [
        { "nodeid": 9, "leaf": -0.0145009011 }, 
        { "nodeid": 10, "leaf": 0.0478294529 }
      ]}
    ]}, 
    { "nodeid": 2, "depth": 1, "split": "birth_year", "split_condition": 1983, "yes": 5, "no": 6, "missing": 6 , "children": [
      { "nodeid": 5, "depth": 2, "split": "race_ethnicityWhite", "split_condition": 1, "yes": 11, "no": 12, "missing": 12 , "children": [
        { "nodeid": 11, "leaf": -0.0646301135 }, 
        { "nodeid": 12, "leaf": -0.0181172546 }
      ]}, 
      { "nodeid": 6, "depth": 2, "split": "birth_year", "split_condition": 1995, "yes": 13, "no": 14, "missing": 14 , "children": [
        { "nodeid": 13, "leaf": -0.0702767298 }, 
        { "nodeid": 14, "leaf": -0.0898888037 }
      ]}
    ]}
  ]},
  { "nodeid": 0, "depth": 0, "split": "birth_year", "split_condition": 1977, "yes": 1, "no": 2, "missing": 2 , "children": [
    { "nodeid": 1, "depth": 1, "split": "birth_year", "split_condition": 1945, "yes": 3, "no": 4, "missing": 4 , "children": [
      { "nodeid": 3, "depth": 2, "split": "race_ethnicityWhite", "split_condition": 1, "yes": 7, "no": 8, "missing": 8 , "children": [
        { "nodeid": 7, "leaf": 0.0154661164 }, 
        { "nodeid": 8, "leaf": -0.0519762412 }
      ]}, 
      { "nodeid": 4, "depth": 2, "split": "birth_year", "split_condition": 1968, "yes": 9, "no": 10, "missing": 10 , "children": [
        { "nodeid": 9, "leaf": 0.0443068221 }, 
        { "nodeid": 10, "leaf": -0.00193041808 }
      ]}
    ]}, 
    { "nodeid": 2, "depth": 1, "split": "birth_year", "split_condition": 1995, "yes": 5, "no": 6, "missing": 6 , "children": [
      { "nodeid": 5, "depth": 2, "split": "race_ethnicityWhite", "split_condition": 1, "yes": 11, "no": 12, "missing": 12 , "children": [
        { "nodeid": 11, "leaf": -0.0695792437 }, 
        { "nodeid": 12, "leaf": -0.0444731042 }
      ]}, 
      { "nodeid": 6, "leaf": -0.0877133831 }
    ]}
  ]},
  { "nodeid": 0, "depth": 0, "split": "birth_year", "split_condition": 1974, "yes": 1, "no": 2, "missing": 2 , "children": [
    { "nodeid": 1, "depth": 1, "split": "incomepir", "split_condition": 1.94000006, "yes": 3, "no": 4, "missing": 4 , "children": [
      { "nodeid": 3, "depth": 2, "split": "birth_year", "split_condition": 1941, "yes": 7, "no": 8, "missing": 8 , "children": [
        { "nodeid": 7, "leaf": -0.0104416944 }, 
        { "nodeid": 8, "leaf": 0.0537332296 }
      ]}, 
      { "nodeid": 4, "depth": 2, "split": "birth_year", "split_condition": 1945, "yes": 9, "no": 10, "missing": 10 , "children": [
        { "nodeid": 9, "leaf": -0.0436250418 }, 
        { "nodeid": 10, "leaf": 0.00900060032 }
      ]}
    ]}, 
    { "nodeid": 2, "depth": 1, "split": "birth_year", "split_condition": 1983, "yes": 5, "no": 6, "missing": 6 , "children": [
      { "nodeid": 5, "depth": 2, "split": "race_ethnicityWhite", "split_condition": 1, "yes": 11, "no": 12, "missing": 12 , "children": [
        { "nodeid": 11, "leaf": -0.0605624914 }, 
        { "nodeid": 12, "leaf": -0.00188152667 }
      ]}, 
      { "nodeid": 6, "depth": 2, "split": "birth_year", "split_condition": 1995, "yes": 13, "no": 14, "missing": 14 , "children": [
        { "nodeid": 13, "leaf": -0.0673279539 }, 
        { "nodeid": 14, "leaf": -0.0817653462 }
      ]}
    ]}
  ]},
  { "nodeid": 0, "depth": 0, "split": "birth_year", "split_condition": 1975, "yes": 1, "no": 2, "missing": 2 , "children": [
    { "nodeid": 1, "depth": 1, "split": "incomepir", "split_condition": 3.73000002, "yes": 3, "no": 4, "missing": 4 , "children": [
      { "nodeid": 3, "depth": 2, "split": "birth_year", "split_condition": 1949, "yes": 7, "no": 8, "missing": 8 , "children": [
        { "nodeid": 7, "leaf": -0.00258478499 }, 
        { "nodeid": 8, "leaf": 0.0464479141 }
      ]}, 
      { "nodeid": 4, "depth": 2, "split": "birth_year", "split_condition": 1967, "yes": 9, "no": 10, "missing": 10 , "children": [
        { "nodeid": 9, "leaf": -0.011360026 }, 
        { "nodeid": 10, "leaf": -0.0766635165 }
      ]}
    ]}, 
    { "nodeid": 2, "depth": 1, "split": "birth_year", "split_condition": 1985, "yes": 5, "no": 6, "missing": 6 , "children": [
      { "nodeid": 5, "depth": 2, "split": "incomepir", "split_condition": 1.02999997, "yes": 11, "no": 12, "missing": 12 , "children": [
        { "nodeid": 11, "leaf": -0.00787964743 }, 
        { "nodeid": 12, "leaf": -0.0561407581 }
      ]}, 
      { "nodeid": 6, "depth": 2, "split": "birth_year", "split_condition": 1995, "yes": 13, "no": 14, "missing": 14 , "children": [
        { "nodeid": 13, "leaf": -0.0647517294 }, 
        { "nodeid": 14, "leaf": -0.0790237561 }
      ]}
    ]}
  ]},
  { "nodeid": 0, "depth": 0, "split": "incomepir", "split_condition": 2.3900001, "yes": 1, "no": 2, "missing": 2 , "children": [
    { "nodeid": 1, "depth": 1, "split": "race_ethnicityHispanic", "split_condition": 1, "yes": 3, "no": 4, "missing": 4 , "children": [
      { "nodeid": 3, "depth": 2, "split": "incomepir", "split_condition": 1.03999996, "yes": 7, "no": 8, "missing": 8 , "children": [
        { "nodeid": 7, "leaf": 0.0339636765 }, 
        { "nodeid": 8, "leaf": 0.0121069597 }
      ]}, 
      { "nodeid": 4, "depth": 2, "split": "male", "split_condition": 1, "yes": 9, "no": 10, "missing": 10 , "children": [
        { "nodeid": 9, "leaf": -0.0247133728 }, 
        { "nodeid": 10, "leaf": -0.00361139886 }
      ]}
    ]}, 
    { "nodeid": 2, "depth": 1, "split": "male", "split_condition": 1, "yes": 5, "no": 6, "missing": 6 , "children": [
      { "nodeid": 5, "depth": 2, "split": "incomepir", "split_condition": 4.53000021, "yes": 11, "no": 12, "missing": 12 , "children": [
        { "nodeid": 11, "leaf": -0.0309668165 }, 
        { "nodeid": 12, "leaf": -0.0514955893 }
      ]}, 
      { "nodeid": 6, "depth": 2, "split": "race_ethnicityBlack", "split_condition": 1, "yes": 13, "no": 14, "missing": 14 , "children": [
        { "nodeid": 13, "leaf": -0.0199716818 }, 
        { "nodeid": 14, "leaf": 0.0100230398 }
      ]}
    ]}
  ]},
  { "nodeid": 0, "depth": 0, "split": "incomepir", "split_condition": 2.3900001, "yes": 1, "no": 2, "missing": 2 , "children": [
    { "nodeid": 1, "depth": 1, "split": "born_usa", "split_condition": 1, "yes": 3, "no": 4, "missing": 4 , "children": [
      { "nodeid": 3, "depth": 2, "split": "race_ethnicityBlack", "split_condition": 1, "yes": 7, "no": 8, "missing": 8 , "children": [
        { "nodeid": 7, "leaf": -0.0319289826 }, 
        { "nodeid": 8, "leaf": 0.0177875403 }
      ]}, 
      { "nodeid": 4, "depth": 2, "split": "male", "split_condition": 1, "yes": 9, "no": 10, "missing": 10 , "children": [
        { "nodeid": 9, "leaf": 0.00575416489 }, 
        { "nodeid": 10, "leaf": 0.0304471832 }
      ]}
    ]}, 
    { "nodeid": 2, "depth": 1, "split": "race_ethnicityBlack", "split_condition": 1, "yes": 5, "no": 6, "missing": 6 , "children": [
      { "nodeid": 5, "depth": 2, "split": "male", "split_condition": 1, "yes": 11, "no": 12, "missing": 12 , "children": [
        { "nodeid": 11, "leaf": -0.046420604 }, 
        { "nodeid": 12, "leaf": -0.0227329396 }
      ]}, 
      { "nodeid": 6, "depth": 2, "split": "incomepir", "split_condition": 2.61999989, "yes": 13, "no": 14, "missing": 14 , "children": [
        { "nodeid": 13, "leaf": -0.0653777048 }, 
        { "nodeid": 14, "leaf": 0.00910799764 }
      ]}
    ]}
  ]},
  { "nodeid": 0, "depth": 0, "split": "incomepir", "split_condition": 1.91999996, "yes": 1, "no": 2, "missing": 2 , "children": [
    { "nodeid": 1, "depth": 1, "split": "born_usa", "split_condition": 1, "yes": 3, "no": 4, "missing": 4 , "children": [
      { "nodeid": 3, "depth": 2, "split": "incomepir", "split_condition": 0.119999997, "yes": 7, "no": 8, "missing": 8 , "children": [
        { "nodeid": 7, "leaf": 0.0181737002 }, 
        { "nodeid": 8, "leaf": -0.0321310684 }
      ]}, 
      { "nodeid": 4, "depth": 2, "split": "male", "split_condition": 1, "yes": 9, "no": 10, "missing": 10 , "children": [
        { "nodeid": 9, "leaf": 0.00935835298 }, 
        { "nodeid": 10, "leaf": 0.0312779956 }
      ]}
    ]}, 
    { "nodeid": 2, "depth": 1, "split": "male", "split_condition": 1, "yes": 5, "no": 6, "missing": 6 , "children": [
      { "nodeid": 5, "depth": 2, "split": "race_ethnicityBlack", "split_condition": 1, "yes": 11, "no": 12, "missing": 12 , "children": [
        { "nodeid": 11, "leaf": -0.0443167053 }, 
        { "nodeid": 12, "leaf": -0.00913615804 }
      ]}, 
      { "nodeid": 6, "depth": 2, "split": "born_usa", "split_condition": 1, "yes": 13, "no": 14, "missing": 14 , "children": [
        { "nodeid": 13, "leaf": -0.0380807929 }, 
        { "nodeid": 14, "leaf": -0.000161412943 }
      ]}
    ]}
  ]},
  { "nodeid": 0, "depth": 0, "split": "birth_year", "split_condition": 1977, "yes": 1, "no": 2, "missing": 2 , "children": [
    { "nodeid": 1, "depth": 1, "split": "incomepir", "split_condition": 2.32999992, "yes": 3, "no": 4, "missing": 4 , "children": [
      { "nodeid": 3, "depth": 2, "split": "birth_year", "split_condition": 1941, "yes": 7, "no": 8, "missing": 8 , "children": [
        { "nodeid": 7, "leaf": -0.00950508844 }, 
        { "nodeid": 8, "leaf": 0.0440697074 }
      ]}, 
      { "nodeid": 4, "depth": 2, "split": "birth_year", "split_condition": 1967, "yes": 9, "no": 10, "missing": 10 , "children": [
        { "nodeid": 9, "leaf": 0.00805095863 }, 
        { "nodeid": 10, "leaf": -0.0637689382 }
      ]}
    ]}, 
    { "nodeid": 2, "depth": 1, "split": "race_ethnicityWhite", "split_condition": 1, "yes": 5, "no": 6, "missing": 6 , "children": [
      { "nodeid": 5, "depth": 2, "split": "birth_year", "split_condition": 1991, "yes": 11, "no": 12, "missing": 12 , "children": [
        { "nodeid": 11, "leaf": -0.0620768964 }, 
        { "nodeid": 12, "leaf": -0.0761911571 }
      ]}, 
      { "nodeid": 6, "depth": 2, "split": "birth_year", "split_condition": 1985, "yes": 13, "no": 14, "missing": 14 , "children": [
        { "nodeid": 13, "leaf": -0.0165818464 }, 
        { "nodeid": 14, "leaf": -0.0590634122 }
      ]}
    ]}
  ]},
  { "nodeid": 0, "depth": 0, "split": "birth_year", "split_condition": 1971, "yes": 1, "no": 2, "missing": 2 , "children": [
    { "nodeid": 1, "depth": 1, "split": "birth_year", "split_condition": 1948, "yes": 3, "no": 4, "missing": 4 , "children": [
      { "nodeid": 3, "depth": 2, "split": "race_ethnicityWhite", "split_condition": 1, "yes": 7, "no": 8, "missing": 8 , "children": [
        { "nodeid": 7, "leaf": 0.0187468044 }, 
        { "nodeid": 8, "leaf": -0.0481665879 }
      ]}, 
      { "nodeid": 4, "depth": 2, "split": "male", "split_condition": 1, "yes": 9, "no": 10, "missing": 10 , "children": [
        { "nodeid": 9, "leaf": 0.021278454 }, 
        { "nodeid": 10, "leaf": 0.0461554043 }
      ]}
    ]}, 
    { "nodeid": 2, "depth": 1, "split": "birth_year", "split_condition": 1983, "yes": 5, "no": 6, "missing": 6 , "children": [
      { "nodeid": 5, "depth": 2, "split": "race_ethnicityWhite", "split_condition": 1, "yes": 11, "no": 12, "missing": 12 , "children": [
        { "nodeid": 11, "leaf": -0.0498210341 }, 
        { "nodeid": 12, "leaf": -0.00467152894 }
      ]}, 
      { "nodeid": 6, "depth": 2, "split": "birth_year", "split_condition": 1995, "yes": 13, "no": 14, "missing": 14 , "children": [
        { "nodeid": 13, "leaf": -0.0553483367 }, 
        { "nodeid": 14, "leaf": -0.0744783506 }
      ]}
    ]}
  ]},
  { "nodeid": 0, "depth": 0, "split": "birth_year", "split_condition": 1975, "yes": 1, "no": 2, "missing": 2 , "children": [
    { "nodeid": 1, "depth": 1, "split": "incomepir", "split_condition": 3.9000001, "yes": 3, "no": 4, "missing": 4 , "children": [
      { "nodeid": 3, "depth": 2, "split": "born_usa", "split_condition": 1, "yes": 7, "no": 8, "missing": 8 , "children": [
        { "nodeid": 7, "leaf": -0.0168561582 }, 
        { "nodeid": 8, "leaf": 0.0378163643 }
      ]}, 
      { "nodeid": 4, "depth": 2, "split": "birth_year", "split_condition": 1966, "yes": 9, "no": 10, "missing": 10 , "children": [
        { "nodeid": 9, "leaf": -0.00714480737 }, 
        { "nodeid": 10, "leaf": -0.0758281723 }
      ]}
    ]}, 
    { "nodeid": 2, "depth": 1, "split": "birth_year", "split_condition": 1985, "yes": 5, "no": 6, "missing": 6 , "children": [
      { "nodeid": 5, "depth": 2, "split": "incomepir", "split_condition": 1.36000001, "yes": 11, "no": 12, "missing": 12 , "children": [
        { "nodeid": 11, "leaf": -0.00610750588 }, 
        { "nodeid": 12, "leaf": -0.0506401546 }
      ]}, 
      { "nodeid": 6, "depth": 2, "split": "birth_year", "split_condition": 1993, "yes": 13, "no": 14, "missing": 14 , "children": [
        { "nodeid": 13, "leaf": -0.0565328486 }, 
        { "nodeid": 14, "leaf": -0.0723435804 }
      ]}
    ]}
  ]},
  { "nodeid": 0, "depth": 0, "split": "birth_year", "split_condition": 1977, "yes": 1, "no": 2, "missing": 2 , "children": [
    { "nodeid": 1, "depth": 1, "split": "birth_year", "split_condition": 1944, "yes": 3, "no": 4, "missing": 4 , "children": [
      { "nodeid": 3, "depth": 2, "split": "race_ethnicityWhite", "split_condition": 1, "yes": 7, "no": 8, "missing": 8 , "children": [
        { "nodeid": 7, "leaf": 0.00621768227 }, 
        { "nodeid": 8, "leaf": -0.0443646647 }
      ]}, 
      { "nodeid": 4, "depth": 2, "split": "born_usa", "split_condition": 1, "yes": 9, "no": 10, "missing": 10 , "children": [
        { "nodeid": 9, "leaf": -0.0227648672 }, 
        { "nodeid": 10, "leaf": 0.0341751948 }
      ]}
    ]}, 
    { "nodeid": 2, "depth": 1, "split": "birth_year", "split_condition": 1992, "yes": 5, "no": 6, "missing": 6 , "children": [
      { "nodeid": 5, "depth": 2, "split": "race_ethnicityHispanic", "split_condition": 1, "yes": 11, "no": 12, "missing": 12 , "children": [
        { "nodeid": 11, "leaf": -0.0351283997 }, 
        { "nodeid": 12, "leaf": -0.0672809407 }
      ]}, 
      { "nodeid": 6, "depth": 2, "split": "birth_year", "split_condition": 2000, "yes": 13, "no": 14, "missing": 14 , "children": [
        { "nodeid": 13, "leaf": -0.0647220835 }, 
        { "nodeid": 14, "leaf": -0.0736734048 }
      ]}
    ]}
  ]},
  { "nodeid": 0, "depth": 0, "split": "birth_year", "split_condition": 1975, "yes": 1, "no": 2, "missing": 2 , "children": [
    { "nodeid": 1, "depth": 1, "split": "birth_year", "split_condition": 1949, "yes": 3, "no": 4, "missing": 4 , "children": [
      { "nodeid": 3, "depth": 2, "split": "race_ethnicityBlack", "split_condition": 1, "yes": 7, "no": 8, "missing": 8 , "children": [
        { "nodeid": 7, "leaf": -0.0324943513 }, 
        { "nodeid": 8, "leaf": 0.0323045552 }
      ]}, 
      { "nodeid": 4, "depth": 2, "split": "incomepir", "split_condition": 2.30999994, "yes": 9, "no": 10, "missing": 10 , "children": [
        { "nodeid": 9, "leaf": 0.0429131947 }, 
        { "nodeid": 10, "leaf": 0.00474453857 }
      ]}
    ]}, 
    { "nodeid": 2, "depth": 1, "split": "birth_year", "split_condition": 1985, "yes": 5, "no": 6, "missing": 6 , "children": [
      { "nodeid": 5, "depth": 2, "split": "race_ethnicityHispanic", "split_condition": 1, "yes": 11, "no": 12, "missing": 12 , "children": [
        { "nodeid": 11, "leaf": -0.022715902 }, 
        { "nodeid": 12, "leaf": -0.0654341504 }
      ]}, 
      { "nodeid": 6, "depth": 2, "split": "birth_year", "split_condition": 1995, "yes": 13, "no": 14, "missing": 14 , "children": [
        { "nodeid": 13, "leaf": -0.0529684499 }, 
        { "nodeid": 14, "leaf": -0.0689378455 }
      ]}
    ]}
  ]},
  { "nodeid": 0, "depth": 0, "split": "incomepir", "split_condition": 1.63, "yes": 1, "no": 2, "missing": 2 , "children": [
    { "nodeid": 1, "depth": 1, "split": "race_ethnicityHispanic", "split_condition": 1, "yes": 3, "no": 4, "missing": 4 , "children": [
      { "nodeid": 3, "depth": 2, "split": "male", "split_condition": 1, "yes": 7, "no": 8, "missing": 8 , "children": [
        { "nodeid": 7, "leaf": 0.0120576341 }, 
        { "nodeid": 8, "leaf": 0.0325018167 }
      ]}, 
      { "nodeid": 4, "depth": 2, "split": "born_usa", "split_condition": 1, "yes": 9, "no": 10, "missing": 10 , "children": [
        { "nodeid": 9, "leaf": -0.0324247889 }, 
        { "nodeid": 10, "leaf": 0.00293167424 }
      ]}
    ]}, 
    { "nodeid": 2, "depth": 1, "split": "male", "split_condition": 1, "yes": 5, "no": 6, "missing": 6 , "children": [
      { "nodeid": 5, "depth": 2, "split": "incomepir", "split_condition": 4.53000021, "yes": 11, "no": 12, "missing": 12 , "children": [
        { "nodeid": 11, "leaf": -0.0211903434 }, 
        { "nodeid": 12, "leaf": -0.0450020395 }
      ]}, 
      { "nodeid": 6, "depth": 2, "split": "born_usa", "split_condition": 1, "yes": 13, "no": 14, "missing": 14 , "children": [
        { "nodeid": 13, "leaf": -0.0408512838 }, 
        { "nodeid": 14, "leaf": 0.000843205489 }
      ]}
    ]}
  ]},
  { "nodeid": 0, "depth": 0, "split": "birth_year", "split_condition": 1975, "yes": 1, "no": 2, "missing": 2 , "children": [
    { "nodeid": 1, "depth": 1, "split": "birth_year", "split_condition": 1948, "yes": 3, "no": 4, "missing": 4 , "children": [
      { "nodeid": 3, "depth": 2, "split": "race_ethnicityWhite", "split_condition": 1, "yes": 7, "no": 8, "missing": 8 , "children": [
        { "nodeid": 7, "leaf": 0.0153403794 }, 
        { "nodeid": 8, "leaf": -0.0466180854 }
      ]}, 
      { "nodeid": 4, "depth": 2, "split": "incomepir", "split_condition": 3, "yes": 9, "no": 10, "missing": 10 , "children": [
        { "nodeid": 9, "leaf": 0.0393767841 }, 
        { "nodeid": 10, "leaf": -0.000326431968 }
      ]}
    ]}, 
    { "nodeid": 2, "depth": 1, "split": "birth_year", "split_condition": 1983, "yes": 5, "no": 6, "missing": 6 , "children": [
      { "nodeid": 5, "depth": 2, "split": "race_ethnicityWhite", "split_condition": 1, "yes": 11, "no": 12, "missing": 12 , "children": [
        { "nodeid": 11, "leaf": -0.0570724607 }, 
        { "nodeid": 12, "leaf": 0.00522304839 }
      ]}, 
      { "nodeid": 6, "depth": 2, "split": "birth_year", "split_condition": 1995, "yes": 13, "no": 14, "missing": 14 , "children": [
        { "nodeid": 13, "leaf": -0.0527204573 }, 
        { "nodeid": 14, "leaf": -0.069000572 }
      ]}
    ]}
  ]},
  { "nodeid": 0, "depth": 0, "split": "incomepir", "split_condition": 2.45000005, "yes": 1, "no": 2, "missing": 2 , "children": [
    { "nodeid": 1, "depth": 1, "split": "born_usa", "split_condition": 1, "yes": 3, "no": 4, "missing": 4 , "children": [
      { "nodeid": 3, "depth": 2, "split": "incomepir", "split_condition": 2.25, "yes": 7, "no": 8, "missing": 8 , "children": [
        { "nodeid": 7, "leaf": -0.0229833387 }, 
        { "nodeid": 8, "leaf": -0.0881616026 }
      ]}, 
      { "nodeid": 4, "depth": 2, "split": "incomepir", "split_condition": 1.09000003, "yes": 9, "no": 10, "missing": 10 , "children": [
        { "nodeid": 9, "leaf": 0.0232561193 }, 
        { "nodeid": 10, "leaf": 0.0060529667 }
      ]}
    ]}, 
    { "nodeid": 2, "depth": 1, "split": "male", "split_condition": 1, "yes": 5, "no": 6, "missing": 6 , "children": [
      { "nodeid": 5, "depth": 2, "split": "race_ethnicityWhite", "split_condition": 1, "yes": 11, "no": 12, "missing": 12 , "children": [
        { "nodeid": 11, "leaf": -0.0231346935 }, 
        { "nodeid": 12, "leaf": -0.0482921004 }
      ]}, 
      { "nodeid": 6, "depth": 2, "split": "race_ethnicityBlack", "split_condition": 1, "yes": 13, "no": 14, "missing": 14 , "children": [
        { "nodeid": 13, "leaf": -0.0170678496 }, 
        { "nodeid": 14, "leaf": 0.0117404414 }
      ]}
    ]}
  ]},
  { "nodeid": 0, "depth": 0, "split": "born_usa", "split_condition": 1, "yes": 1, "no": 2, "missing": 2 , "children": [
    { "nodeid": 1, "depth": 1, "split": "race_ethnicityBlack", "split_condition": 1, "yes": 3, "no": 4, "missing": 4 , "children": [
      { "nodeid": 3, "depth": 2, "split": "male", "split_condition": 1, "yes": 7, "no": 8, "missing": 8 , "children": [
        { "nodeid": 7, "leaf": -0.0342792384 }, 
        { "nodeid": 8, "leaf": -0.0265410077 }
      ]}, 
      { "nodeid": 4, "depth": 2, "split": "male", "split_condition": 1, "yes": 9, "no": 10, "missing": 10 , "children": [
        { "nodeid": 9, "leaf": -0.015149327 }, 
        { "nodeid": 10, "leaf": 0.00332171586 }
      ]}
    ]}, 
    { "nodeid": 2, "depth": 1, "split": "male", "split_condition": 1, "yes": 5, "no": 6, "missing": 6 , "children": [
      { "nodeid": 5, "depth": 2, "split": "race_ethnicityBlack", "split_condition": 1, "yes": 11, "no": 12, "missing": 12 , "children": [
        { "nodeid": 11, "leaf": -0.0104747303 }, 
        { "nodeid": 12, "leaf": 0.00670177629 }
      ]}, 
      { "nodeid": 6, "depth": 2, "split": "race_ethnicityBlack", "split_condition": 1, "yes": 13, "no": 14, "missing": 14 , "children": [
        { "nodeid": 13, "leaf": 0.00871233456 }, 
        { "nodeid": 14, "leaf": 0.0222695321 }
      ]}
    ]}
  ]},
  { "nodeid": 0, "depth": 0, "split": "birth_year", "split_condition": 1971, "yes": 1, "no": 2, "missing": 2 , "children": [
    { "nodeid": 1, "depth": 1, "split": "birth_year", "split_condition": 1948, "yes": 3, "no": 4, "missing": 4 , "children": [
      { "nodeid": 3, "depth": 2, "split": "race_ethnicityWhite", "split_condition": 1, "yes": 7, "no": 8, "missing": 8 , "children": [
        { "nodeid": 7, "leaf": 0.0113209663 }, 
        { "nodeid": 8, "leaf": -0.0424419604 }
      ]}, 
      { "nodeid": 4, "depth": 2, "split": "incomepir", "split_condition": 3.9000001, "yes": 9, "no": 10, "missing": 10 , "children": [
        { "nodeid": 9, "leaf": 0.0377561562 }, 
        { "nodeid": 10, "leaf": -0.00472443458 }
      ]}
    ]}, 
    { "nodeid": 2, "depth": 1, "split": "birth_year", "split_condition": 1983, "yes": 5, "no": 6, "missing": 6 , "children": [
      { "nodeid": 5, "depth": 2, "split": "incomepir", "split_condition": 2.45000005, "yes": 11, "no": 12, "missing": 12 , "children": [
        { "nodeid": 11, "leaf": -0.00396072119 }, 
        { "nodeid": 12, "leaf": -0.0563516021 }
      ]}, 
      { "nodeid": 6, "depth": 2, "split": "birth_year", "split_condition": 1995, "yes": 13, "no": 14, "missing": 14 , "children": [
        { "nodeid": 13, "leaf": -0.04505888 }, 
        { "nodeid": 14, "leaf": -0.0676845312 }
      ]}
    ]}
  ]},
  { "nodeid": 0, "depth": 0, "split": "birth_year", "split_condition": 1971, "yes": 1, "no": 2, "missing": 2 , "children": [
    { "nodeid": 1, "depth": 1, "split": "birth_year", "split_condition": 1949, "yes": 3, "no": 4, "missing": 4 , "children": [
      { "nodeid": 3, "depth": 2, "split": "race_ethnicityWhite", "split_condition": 1, "yes": 7, "no": 8, "missing": 8 , "children": [
        { "nodeid": 7, "leaf": 0.014043346 }, 
        { "nodeid": 8, "leaf": -0.0354813188 }
      ]}, 
      { "nodeid": 4, "depth": 2, "split": "born_usa", "split_condition": 1, "yes": 9, "no": 10, "missing": 10 , "children": [
        { "nodeid": 9, "leaf": -0.0115931891 }, 
        { "nodeid": 10, "leaf": 0.0376213118 }
      ]}
    ]}, 
    { "nodeid": 2, "depth": 1, "split": "birth_year", "split_condition": 1983, "yes": 5, "no": 6, "missing": 6 , "children": [
      { "nodeid": 5, "depth": 2, "split": "race_ethnicityWhite", "split_condition": 1, "yes": 11, "no": 12, "missing": 12 , "children": [
        { "nodeid": 11, "leaf": -0.0387977771 }, 
        { "nodeid": 12, "leaf": -0.00208032248 }
      ]}, 
      { "nodeid": 6, "depth": 2, "split": "birth_year", "split_condition": 1995, "yes": 13, "no": 14, "missing": 14 , "children": [
        { "nodeid": 13, "leaf": -0.0446574241 }, 
        { "nodeid": 14, "leaf": -0.0680923089 }
      ]}
    ]}
  ]},
  { "nodeid": 0, "depth": 0, "split": "birth_year", "split_condition": 1971, "yes": 1, "no": 2, "missing": 2 , "children": [
    { "nodeid": 1, "depth": 1, "split": "birth_year", "split_condition": 1943, "yes": 3, "no": 4, "missing": 4 , "children": [
      { "nodeid": 3, "depth": 2, "split": "race_ethnicityBlack", "split_condition": 1, "yes": 7, "no": 8, "missing": 8 , "children": [
        { "nodeid": 7, "leaf": -0.0368436798 }, 
        { "nodeid": 8, "leaf": 0.0206057262 }
      ]}, 
      { "nodeid": 4, "depth": 2, "split": "incomepir", "split_condition": 2.18000007, "yes": 9, "no": 10, "missing": 10 , "children": [
        { "nodeid": 9, "leaf": 0.0381401815 }, 
        { "nodeid": 10, "leaf": 0.00805796683 }
      ]}
    ]}, 
    { "nodeid": 2, "depth": 1, "split": "birth_year", "split_condition": 1983, "yes": 5, "no": 6, "missing": 6 , "children": [
      { "nodeid": 5, "depth": 2, "split": "incomepir", "split_condition": 2.45000005, "yes": 11, "no": 12, "missing": 12 , "children": [
        { "nodeid": 11, "leaf": -0.00192065525 }, 
        { "nodeid": 12, "leaf": -0.0502505712 }
      ]}, 
      { "nodeid": 6, "depth": 2, "split": "birth_year", "split_condition": 1995, "yes": 13, "no": 14, "missing": 14 , "children": [
        { "nodeid": 13, "leaf": -0.0432192646 }, 
        { "nodeid": 14, "leaf": -0.0651272163 }
      ]}
    ]}
  ]},
  { "nodeid": 0, "depth": 0, "split": "birth_year", "split_condition": 1971, "yes": 1, "no": 2, "missing": 2 , "children": [
    { "nodeid": 1, "depth": 1, "split": "birth_year", "split_condition": 1949, "yes": 3, "no": 4, "missing": 4 , "children": [
      { "nodeid": 3, "depth": 2, "split": "race_ethnicityWhite", "split_condition": 1, "yes": 7, "no": 8, "missing": 8 , "children": [
        { "nodeid": 7, "leaf": 0.0124418242 }, 
        { "nodeid": 8, "leaf": -0.0308875833 }
      ]}, 
      { "nodeid": 4, "depth": 2, "split": "born_usa", "split_condition": 1, "yes": 9, "no": 10, "missing": 10 , "children": [
        { "nodeid": 9, "leaf": -0.0234786272 }, 
        { "nodeid": 10, "leaf": 0.0339346863 }
      ]}
    ]}, 
    { "nodeid": 2, "depth": 1, "split": "birth_year", "split_condition": 1985, "yes": 5, "no": 6, "missing": 6 , "children": [
      { "nodeid": 5, "depth": 2, "split": "race_ethnicityWhite", "split_condition": 1, "yes": 11, "no": 12, "missing": 12 , "children": [
        { "nodeid": 11, "leaf": -0.0374800339 }, 
        { "nodeid": 12, "leaf": -0.00278139836 }
      ]}, 
      { "nodeid": 6, "depth": 2, "split": "birth_year", "split_condition": 1995, "yes": 13, "no": 14, "missing": 14 , "children": [
        { "nodeid": 13, "leaf": -0.044045344 }, 
        { "nodeid": 14, "leaf": -0.062147446 }
      ]}
    ]}
  ]},
  { "nodeid": 0, "depth": 0, "split": "birth_year", "split_condition": 1975, "yes": 1, "no": 2, "missing": 2 , "children": [
    { "nodeid": 1, "depth": 1, "split": "incomepir", "split_condition": 4.53000021, "yes": 3, "no": 4, "missing": 4 , "children": [
      { "nodeid": 3, "depth": 2, "split": "born_usa", "split_condition": 1, "yes": 7, "no": 8, "missing": 8 , "children": [
        { "nodeid": 7, "leaf": -0.0129420133 }, 
        { "nodeid": 8, "leaf": 0.0272298884 }
      ]}, 
      { "nodeid": 4, "depth": 2, "split": "birth_year", "split_condition": 1967, "yes": 9, "no": 10, "missing": 10 , "children": [
        { "nodeid": 9, "leaf": -0.00832039025 }, 
        { "nodeid": 10, "leaf": -0.0742738768 }
      ]}
    ]}, 
    { "nodeid": 2, "depth": 1, "split": "birth_year", "split_condition": 1983, "yes": 5, "no": 6, "missing": 6 , "children": [
      { "nodeid": 5, "depth": 2, "split": "race_ethnicityWhite", "split_condition": 1, "yes": 11, "no": 12, "missing": 12 , "children": [
        { "nodeid": 11, "leaf": -0.0471048206 }, 
        { "nodeid": 12, "leaf": 0.00399727141 }
      ]}, 
      { "nodeid": 6, "depth": 2, "split": "incomepir", "split_condition": 1.15999997, "yes": 13, "no": 14, "missing": 14 , "children": [
        { "nodeid": 13, "leaf": -0.0406527668 }, 
        { "nodeid": 14, "leaf": -0.0596374683 }
      ]}
    ]}
  ]},
  { "nodeid": 0, "depth": 0, "split": "birth_year", "split_condition": 1975, "yes": 1, "no": 2, "missing": 2 , "children": [
    { "nodeid": 1, "depth": 1, "split": "birth_year", "split_condition": 1942, "yes": 3, "no": 4, "missing": 4 , "children": [
      { "nodeid": 3, "depth": 2, "split": "race_ethnicityWhite", "split_condition": 1, "yes": 7, "no": 8, "missing": 8 , "children": [
        { "nodeid": 7, "leaf": 0.00436590565 }, 
        { "nodeid": 8, "leaf": -0.0421292745 }
      ]}, 
      { "nodeid": 4, "depth": 2, "split": "born_usa", "split_condition": 1, "yes": 9, "no": 10, "missing": 10 , "children": [
        { "nodeid": 9, "leaf": -0.0159116164 }, 
        { "nodeid": 10, "leaf": 0.025999004 }
      ]}
    ]}, 
    { "nodeid": 2, "depth": 1, "split": "birth_year", "split_condition": 1995, "yes": 5, "no": 6, "missing": 6 , "children": [
      { "nodeid": 5, "depth": 2, "split": "race_ethnicityWhite", "split_condition": 1, "yes": 11, "no": 12, "missing": 12 , "children": [
        { "nodeid": 11, "leaf": -0.0439214334 }, 
        { "nodeid": 12, "leaf": -0.009530209 }
      ]}, 
      { "nodeid": 6, "leaf": -0.0641389117 }
    ]}
  ]},
  { "nodeid": 0, "depth": 0, "split": "birth_year", "split_condition": 1968, "yes": 1, "no": 2, "missing": 2 , "children": [
    { "nodeid": 1, "depth": 1, "split": "birth_year", "split_condition": 1948, "yes": 3, "no": 4, "missing": 4 , "children": [
      { "nodeid": 3, "depth": 2, "split": "race_ethnicityWhite", "split_condition": 1, "yes": 7, "no": 8, "missing": 8 , "children": [
        { "nodeid": 7, "leaf": 0.0143737001 }, 
        { "nodeid": 8, "leaf": -0.0288183149 }
      ]}, 
      { "nodeid": 4, "depth": 2, "split": "incomepir", "split_condition": 2.18000007, "yes": 9, "no": 10, "missing": 10 , "children": [
        { "nodeid": 9, "leaf": 0.0380501933 }, 
        { "nodeid": 10, "leaf": 0.00819810014 }
      ]}
    ]}, 
    { "nodeid": 2, "depth": 1, "split": "birth_year", "split_condition": 1983, "yes": 5, "no": 6, "missing": 6 , "children": [
      { "nodeid": 5, "depth": 2, "split": "incomepir", "split_condition": 1.30999994, "yes": 11, "no": 12, "missing": 12 , "children": [
        { "nodeid": 11, "leaf": 0.0163871236 }, 
        { "nodeid": 12, "leaf": -0.0376865491 }
      ]}, 
      { "nodeid": 6, "depth": 2, "split": "birth_year", "split_condition": 1995, "yes": 13, "no": 14, "missing": 14 , "children": [
        { "nodeid": 13, "leaf": -0.0355362408 }, 
        { "nodeid": 14, "leaf": -0.0592309795 }
      ]}
    ]}
  ]},
  { "nodeid": 0, "depth": 0, "split": "birth_year", "split_condition": 1971, "yes": 1, "no": 2, "missing": 2 , "children": [
    { "nodeid": 1, "depth": 1, "split": "incomepir", "split_condition": 3.41000009, "yes": 3, "no": 4, "missing": 4 , "children": [
      { "nodeid": 3, "depth": 2, "split": "birth_year", "split_condition": 1948, "yes": 7, "no": 8, "missing": 8 , "children": [
        { "nodeid": 7, "leaf": -0.00119779643 }, 
        { "nodeid": 8, "leaf": 0.0309571214 }
      ]}, 
      { "nodeid": 4, "depth": 2, "split": "male", "split_condition": 1, "yes": 9, "no": 10, "missing": 10 , "children": [
        { "nodeid": 9, "leaf": -0.027094746 }, 
        { "nodeid": 10, "leaf": 0.00217794138 }
      ]}
    ]}, 
    { "nodeid": 2, "depth": 1, "split": "birth_year", "split_condition": 1983, "yes": 5, "no": 6, "missing": 6 , "children": [
      { "nodeid": 5, "depth": 2, "split": "incomepir", "split_condition": 1.37, "yes": 11, "no": 12, "missing": 12 , "children": [
        { "nodeid": 11, "leaf": 0.00910215452 }, 
        { "nodeid": 12, "leaf": -0.0400423072 }
      ]}, 
      { "nodeid": 6, "depth": 2, "split": "birth_year", "split_condition": 1995, "yes": 13, "no": 14, "missing": 14 , "children": [
        { "nodeid": 13, "leaf": -0.038892217 }, 
        { "nodeid": 14, "leaf": -0.0603972152 }
      ]}
    ]}
  ]},
  { "nodeid": 0, "depth": 0, "split": "birth_year", "split_condition": 1968, "yes": 1, "no": 2, "missing": 2 , "children": [
    { "nodeid": 1, "depth": 1, "split": "birth_year", "split_condition": 1949, "yes": 3, "no": 4, "missing": 4 , "children": [
      { "nodeid": 3, "depth": 2, "split": "race_ethnicityWhite", "split_condition": 1, "yes": 7, "no": 8, "missing": 8 , "children": [
        { "nodeid": 7, "leaf": 0.010785006 }, 
        { "nodeid": 8, "leaf": -0.0383838452 }
      ]}, 
      { "nodeid": 4, "depth": 2, "split": "born_usa", "split_condition": 1, "yes": 9, "no": 10, "missing": 10 , "children": [
        { "nodeid": 9, "leaf": -0.0184026789 }, 
        { "nodeid": 10, "leaf": 0.0302131958 }
      ]}
    ]}, 
    { "nodeid": 2, "depth": 1, "split": "birth_year", "split_condition": 1995, "yes": 5, "no": 6, "missing": 6 , "children": [
      { "nodeid": 5, "depth": 2, "split": "race_ethnicityWhite", "split_condition": 1, "yes": 11, "no": 12, "missing": 12 , "children": [
        { "nodeid": 11, "leaf": -0.0329728387 }, 
        { "nodeid": 12, "leaf": -0.0104969591 }
      ]}, 
      { "nodeid": 6, "leaf": -0.0617745593 }
    ]}
  ]},
  { "nodeid": 0, "depth": 0, "split": "birth_year", "split_condition": 1983, "yes": 1, "no": 2, "missing": 2 , "children": [
    { "nodeid": 1, "depth": 1, "split": "incomepir", "split_condition": 1.32000005, "yes": 3, "no": 4, "missing": 4 , "children": [
      { "nodeid": 3, "depth": 2, "split": "born_usa", "split_condition": 1, "yes": 7, "no": 8, "missing": 8 , "children": [
        { "nodeid": 7, "leaf": -0.0196995027 }, 
        { "nodeid": 8, "leaf": 0.034452565 }
      ]}, 
      { "nodeid": 4, "depth": 2, "split": "birth_year", "split_condition": 1967, "yes": 9, "no": 10, "missing": 10 , "children": [
        { "nodeid": 9, "leaf": 0.0067778118 }, 
        { "nodeid": 10, "leaf": -0.0332782902 }
      ]}
    ]}, 
    { "nodeid": 2, "depth": 1, "split": "birth_year", "split_condition": 1995, "yes": 5, "no": 6, "missing": 6 , "children": [
      { "nodeid": 5, "depth": 2, "split": "race_ethnicityHispanic", "split_condition": 1, "yes": 11, "no": 12, "missing": 12 , "children": [
        { "nodeid": 11, "leaf": -0.0353270285 }, 
        { "nodeid": 12, "leaf": -0.0556761399 }
      ]}, 
      { "nodeid": 6, "depth": 2, "split": "incomepir", "split_condition": 0.209999993, "yes": 13, "no": 14, "missing": 14 , "children": [
        { "nodeid": 13, "leaf": -0.0183927771 }, 
        { "nodeid": 14, "leaf": -0.0610065833 }
      ]}
    ]}
  ]},
  { "nodeid": 0, "depth": 0, "split": "birth_year", "split_condition": 1977, "yes": 1, "no": 2, "missing": 2 , "children": [
    { "nodeid": 1, "depth": 1, "split": "incomepir", "split_condition": 1.16999996, "yes": 3, "no": 4, "missing": 4 , "children": [
      { "nodeid": 3, "depth": 2, "split": "born_usa", "split_condition": 1, "yes": 7, "no": 8, "missing": 8 , "children": [
        { "nodeid": 7, "leaf": -0.013549055 }, 
        { "nodeid": 8, "leaf": 0.0381686836 }
      ]}, 
      { "nodeid": 4, "depth": 2, "split": "birth_year", "split_condition": 1966, "yes": 9, "no": 10, "missing": 10 , "children": [
        { "nodeid": 9, "leaf": 0.00556417787 }, 
        { "nodeid": 10, "leaf": -0.0318750553 }
      ]}
    ]}, 
    { "nodeid": 2, "depth": 1, "split": "race_ethnicityWhite", "split_condition": 1, "yes": 5, "no": 6, "missing": 6 , "children": [
      { "nodeid": 5, "depth": 2, "split": "birth_year", "split_condition": 1995, "yes": 11, "no": 12, "missing": 12 , "children": [
        { "nodeid": 11, "leaf": -0.0428569354 }, 
        { "nodeid": 12, "leaf": -0.0604520552 }
      ]}, 
      { "nodeid": 6, "depth": 2, "split": "birth_year", "split_condition": 1982, "yes": 13, "no": 14, "missing": 14 , "children": [
        { "nodeid": 13, "leaf": 0.00493049016 }, 
        { "nodeid": 14, "leaf": -0.0352041386 }
      ]}
    ]}
  ]},
  { "nodeid": 0, "depth": 0, "split": "birth_year", "split_condition": 1971, "yes": 1, "no": 2, "missing": 2 , "children": [
    { "nodeid": 1, "depth": 1, "split": "birth_year", "split_condition": 1949, "yes": 3, "no": 4, "missing": 4 , "children": [
      { "nodeid": 3, "depth": 2, "split": "race_ethnicityBlack", "split_condition": 1, "yes": 7, "no": 8, "missing": 8 , "children": [
        { "nodeid": 7, "leaf": -0.0201538242 }, 
        { "nodeid": 8, "leaf": 0.0203594044 }
      ]}, 
      { "nodeid": 4, "depth": 2, "split": "born_usa", "split_condition": 1, "yes": 9, "no": 10, "missing": 10 , "children": [
        { "nodeid": 9, "leaf": -0.0185904689 }, 
        { "nodeid": 10, "leaf": 0.0251428839 }
      ]}
    ]}, 
    { "nodeid": 2, "depth": 1, "split": "birth_year", "split_condition": 1983, "yes": 5, "no": 6, "missing": 6 , "children": [
      { "nodeid": 5, "depth": 2, "split": "born_usa", "split_condition": 1, "yes": 11, "no": 12, "missing": 12 , "children": [
        { "nodeid": 11, "leaf": -0.0415668935 }, 
        { "nodeid": 12, "leaf": -0.00874684565 }
      ]}, 
      { "nodeid": 6, "depth": 2, "split": "birth_year", "split_condition": 1995, "yes": 13, "no": 14, "missing": 14 , "children": [
        { "nodeid": 13, "leaf": -0.0340626352 }, 
        { "nodeid": 14, "leaf": -0.0550455861 }
      ]}
    ]}
  ]},
  { "nodeid": 0, "depth": 0, "split": "incomepir", "split_condition": 4.53000021, "yes": 1, "no": 2, "missing": 2 , "children": [
    { "nodeid": 1, "depth": 1, "split": "born_usa", "split_condition": 1, "yes": 3, "no": 4, "missing": 4 , "children": [
      { "nodeid": 3, "depth": 2, "split": "race_ethnicityBlack", "split_condition": 1, "yes": 7, "no": 8, "missing": 8 , "children": [
        { "nodeid": 7, "leaf": -0.018902991 }, 
        { "nodeid": 8, "leaf": 0.0117527423 }
      ]}, 
      { "nodeid": 4, "depth": 2, "split": "incomepir", "split_condition": 1.11000001, "yes": 9, "no": 10, "missing": 10 , "children": [
        { "nodeid": 9, "leaf": 0.020174453 }, 
        { "nodeid": 10, "leaf": 0.00173343741 }
      ]}
    ]}, 
    { "nodeid": 2, "depth": 1, "split": "incomepir", "split_condition": 4.67999983, "yes": 5, "no": 6, "missing": 6 , "children": [
      { "nodeid": 5, "leaf": -0.0838587508 }, 
      { "nodeid": 6, "depth": 2, "split": "born_usa", "split_condition": 1, "yes": 11, "no": 12, "missing": 12 , "children": [
        { "nodeid": 11, "leaf": -0.0468631573 }, 
        { "nodeid": 12, "leaf": -0.0171824452 }
      ]}
    ]}
  ]},
  { "nodeid": 0, "depth": 0, "split": "incomepir", "split_condition": 1.79999995, "yes": 1, "no": 2, "missing": 2 , "children": [
    { "nodeid": 1, "depth": 1, "split": "born_usa", "split_condition": 1, "yes": 3, "no": 4, "missing": 4 , "children": [
      { "nodeid": 3, "depth": 2, "split": "race_ethnicityBlack", "split_condition": 1, "yes": 7, "no": 8, "missing": 8 , "children": [
        { "nodeid": 7, "leaf": -0.0299366694 }, 
        { "nodeid": 8, "leaf": 0.0288242251 }
      ]}, 
      { "nodeid": 4, "depth": 2, "split": "male", "split_condition": 1, "yes": 9, "no": 10, "missing": 10 , "children": [
        { "nodeid": 9, "leaf": 0.00682729576 }, 
        { "nodeid": 10, "leaf": 0.0220055413 }
      ]}
    ]}, 
    { "nodeid": 2, "depth": 1, "split": "male", "split_condition": 1, "yes": 5, "no": 6, "missing": 6 , "children": [
      { "nodeid": 5, "depth": 2, "split": "race_ethnicityBlack", "split_condition": 1, "yes": 11, "no": 12, "missing": 12 , "children": [
        { "nodeid": 11, "leaf": -0.0279388316 }, 
        { "nodeid": 12, "leaf": -0.00372608355 }
      ]}, 
      { "nodeid": 6, "depth": 2, "split": "incomepir", "split_condition": 4.07000017, "yes": 13, "no": 14, "missing": 14 , "children": [
        { "nodeid": 13, "leaf": 0.00675874949 }, 
        { "nodeid": 14, "leaf": -0.0135324597 }
      ]}
    ]}
  ]},
  { "nodeid": 0, "depth": 0, "split": "birth_year", "split_condition": 1983, "yes": 1, "no": 2, "missing": 2 , "children": [
    { "nodeid": 1, "depth": 1, "split": "incomepir", "split_condition": 2.3499999, "yes": 3, "no": 4, "missing": 4 , "children": [
      { "nodeid": 3, "depth": 2, "split": "birth_year", "split_condition": 1934, "yes": 7, "no": 8, "missing": 8 , "children": [
        { "nodeid": 7, "leaf": -0.0339834131 }, 
        { "nodeid": 8, "leaf": 0.0211773496 }
      ]}, 
      { "nodeid": 4, "depth": 2, "split": "birth_year", "split_condition": 1967, "yes": 9, "no": 10, "missing": 10 , "children": [
        { "nodeid": 9, "leaf": 0.000740957796 }, 
        { "nodeid": 10, "leaf": -0.0354849398 }
      ]}
    ]}, 
    { "nodeid": 2, "depth": 1, "split": "birth_year", "split_condition": 1995, "yes": 5, "no": 6, "missing": 6 , "children": [
      { "nodeid": 5, "depth": 2, "split": "race_ethnicityWhite", "split_condition": 1, "yes": 11, "no": 12, "missing": 12 , "children": [
        { "nodeid": 11, "leaf": -0.0408193879 }, 
        { "nodeid": 12, "leaf": -0.0130654005 }
      ]}, 
      { "nodeid": 6, "depth": 2, "split": "incomepir", "split_condition": 0.209999993, "yes": 13, "no": 14, "missing": 14 , "children": [
        { "nodeid": 13, "leaf": -0.0137811545 }, 
        { "nodeid": 14, "leaf": -0.0567641966 }
      ]}
    ]}
  ]},
  { "nodeid": 0, "depth": 0, "split": "birth_year", "split_condition": 1968, "yes": 1, "no": 2, "missing": 2 , "children": [
    { "nodeid": 1, "depth": 1, "split": "birth_year", "split_condition": 1941, "yes": 3, "no": 4, "missing": 4 , "children": [
      { "nodeid": 3, "depth": 2, "split": "incomepir", "split_condition": 1.02999997, "yes": 7, "no": 8, "missing": 8 , "children": [
        { "nodeid": 7, "leaf": 0.0123713315 }, 
        { "nodeid": 8, "leaf": -0.0335750245 }
      ]}, 
      { "nodeid": 4, "depth": 2, "split": "incomepir", "split_condition": 3.41000009, "yes": 9, "no": 10, "missing": 10 , "children": [
        { "nodeid": 9, "leaf": 0.0254784711 }, 
        { "nodeid": 10, "leaf": -0.00318689132 }
      ]}
    ]}, 
    { "nodeid": 2, "depth": 1, "split": "birth_year", "split_condition": 1983, "yes": 5, "no": 6, "missing": 6 , "children": [
      { "nodeid": 5, "depth": 2, "split": "incomepir", "split_condition": 2.45000005, "yes": 11, "no": 12, "missing": 12 , "children": [
        { "nodeid": 11, "leaf": -0.000735683425 }, 
        { "nodeid": 12, "leaf": -0.0395284444 }
      ]}, 
      { "nodeid": 6, "depth": 2, "split": "incomepir", "split_condition": 1.15999997, "yes": 13, "no": 14, "missing": 14 , "children": [
        { "nodeid": 13, "leaf": -0.030469615 }, 
        { "nodeid": 14, "leaf": -0.0506222434 }
      ]}
    ]}
  ]},
  { "nodeid": 0, "depth": 0, "split": "birth_year", "split_condition": 1977, "yes": 1, "no": 2, "missing": 2 , "children": [
    { "nodeid": 1, "depth": 1, "split": "birth_year", "split_condition": 1944, "yes": 3, "no": 4, "missing": 4 , "children": [
      { "nodeid": 3, "depth": 2, "split": "race_ethnicityWhite", "split_condition": 1, "yes": 7, "no": 8, "missing": 8 , "children": [
        { "nodeid": 7, "leaf": 0.00492209103 }, 
        { "nodeid": 8, "leaf": -0.0356900096 }
      ]}, 
      { "nodeid": 4, "depth": 2, "split": "male", "split_condition": 1, "yes": 9, "no": 10, "missing": 10 , "children": [
        { "nodeid": 9, "leaf": 0.00217644102 }, 
        { "nodeid": 10, "leaf": 0.0247219801 }
      ]}
    ]}, 
    { "nodeid": 2, "depth": 1, "split": "birth_year", "split_condition": 1995, "yes": 5, "no": 6, "missing": 6 , "children": [
      { "nodeid": 5, "depth": 2, "split": "race_ethnicityWhite", "split_condition": 1, "yes": 11, "no": 12, "missing": 12 , "children": [
        { "nodeid": 11, "leaf": -0.036340218 }, 
        { "nodeid": 12, "leaf": -0.0069220583 }
      ]}, 
      { "nodeid": 6, "depth": 2, "split": "birth_year", "split_condition": 2000, "yes": 13, "no": 14, "missing": 14 , "children": [
        { "nodeid": 13, "leaf": -0.0450031124 }, 
        { "nodeid": 14, "leaf": -0.0586024895 }
      ]}
    ]}
  ]},
  { "nodeid": 0, "depth": 0, "split": "birth_year", "split_condition": 1983, "yes": 1, "no": 2, "missing": 2 , "children": [
    { "nodeid": 1, "depth": 1, "split": "male", "split_condition": 1, "yes": 3, "no": 4, "missing": 4 , "children": [
      { "nodeid": 3, "depth": 2, "split": "birth_year", "split_condition": 1949, "yes": 7, "no": 8, "missing": 8 , "children": [
        { "nodeid": 7, "leaf": -0.0162849575 }, 
        { "nodeid": 8, "leaf": 0.00130638725 }
      ]}, 
      { "nodeid": 4, "depth": 2, "split": "birth_year", "split_condition": 1944, "yes": 9, "no": 10, "missing": 10 , "children": [
        { "nodeid": 9, "leaf": -0.00329462299 }, 
        { "nodeid": 10, "leaf": 0.0224539358 }
      ]}
    ]}, 
    { "nodeid": 2, "depth": 1, "split": "birth_year", "split_condition": 1995, "yes": 5, "no": 6, "missing": 6 , "children": [
      { "nodeid": 5, "depth": 2, "split": "race_ethnicityHispanic", "split_condition": 1, "yes": 11, "no": 12, "missing": 12 , "children": [
        { "nodeid": 11, "leaf": -0.020414779 }, 
        { "nodeid": 12, "leaf": -0.0458907336 }
      ]}, 
      { "nodeid": 6, "depth": 2, "split": "birth_year", "split_condition": 2000, "yes": 13, "no": 14, "missing": 14 , "children": [
        { "nodeid": 13, "leaf": -0.0442429446 }, 
        { "nodeid": 14, "leaf": -0.0581174679 }
      ]}
    ]}
  ]},
  { "nodeid": 0, "depth": 0, "split": "born_usa", "split_condition": 1, "yes": 1, "no": 2, "missing": 2 , "children": [
    { "nodeid": 1, "depth": 1, "split": "incomepir", "split_condition": 0.119999997, "yes": 3, "no": 4, "missing": 4 , "children": [
      { "nodeid": 3, "depth": 2, "split": "race_ethnicityBlack", "split_condition": 1, "yes": 7, "no": 8, "missing": 8 , "children": [
        { "nodeid": 7, "leaf": 0.0186077859 }, 
        { "nodeid": 8, "leaf": 0.150956705 }
      ]}, 
      { "nodeid": 4, "depth": 2, "split": "incomepir", "split_condition": 0.360000014, "yes": 9, "no": 10, "missing": 10 , "children": [
        { "nodeid": 9, "leaf": -0.0822944716 }, 
        { "nodeid": 10, "leaf": -0.0234430227 }
      ]}
    ]}, 
    { "nodeid": 2, "depth": 1, "split": "incomepir", "split_condition": 1.16999996, "yes": 5, "no": 6, "missing": 6 , "children": [
      { "nodeid": 5, "depth": 2, "split": "male", "split_condition": 1, "yes": 11, "no": 12, "missing": 12 , "children": [
        { "nodeid": 11, "leaf": 0.00762932887 }, 
        { "nodeid": 12, "leaf": 0.0239727776 }
      ]}, 
      { "nodeid": 6, "depth": 2, "split": "male", "split_condition": 1, "yes": 13, "no": 14, "missing": 14 , "children": [
        { "nodeid": 13, "leaf": -0.0149626052 }, 
        { "nodeid": 14, "leaf": 0.00454361411 }
      ]}
    ]}
  ]},
  { "nodeid": 0, "depth": 0, "split": "birth_year", "split_condition": 1971, "yes": 1, "no": 2, "missing": 2 , "children": [
    { "nodeid": 1, "depth": 1, "split": "birth_year", "split_condition": 1948, "yes": 3, "no": 4, "missing": 4 , "children": [
      { "nodeid": 3, "depth": 2, "split": "race_ethnicityWhite", "split_condition": 1, "yes": 7, "no": 8, "missing": 8 , "children": [
        { "nodeid": 7, "leaf": 0.00861770101 }, 
        { "nodeid": 8, "leaf": -0.0355694406 }
      ]}, 
      { "nodeid": 4, "depth": 2, "split": "incomepir", "split_condition": 2.07999992, "yes": 9, "no": 10, "missing": 10 , "children": [
        { "nodeid": 9, "leaf": 0.0285194758 }, 
        { "nodeid": 10, "leaf": 0.00252962392 }
      ]}
    ]}, 
    { "nodeid": 2, "depth": 1, "split": "birth_year", "split_condition": 1995, "yes": 5, "no": 6, "missing": 6 , "children": [
      { "nodeid": 5, "depth": 2, "split": "incomepir", "split_condition": 1.30999994, "yes": 11, "no": 12, "missing": 12 , "children": [
        { "nodeid": 11, "leaf": -0.00301576382 }, 
        { "nodeid": 12, "leaf": -0.0313711725 }
      ]}, 
      { "nodeid": 6, "depth": 2, "split": "incomepir", "split_condition": 0.209999993, "yes": 13, "no": 14, "missing": 14 , "children": [
        { "nodeid": 13, "leaf": -0.00774141634 }, 
        { "nodeid": 14, "leaf": -0.0546325929 }
      ]}
    ]}
  ]},
  { "nodeid": 0, "depth": 0, "split": "male", "split_condition": 1, "yes": 1, "no": 2, "missing": 2 , "children": [
    { "nodeid": 1, "depth": 1, "split": "race_ethnicityBlack", "split_condition": 1, "yes": 3, "no": 4, "missing": 4 , "children": [
      { "nodeid": 3, "depth": 2, "split": "born_usa", "split_condition": 1, "yes": 7, "no": 8, "missing": 8 , "children": [
        { "nodeid": 7, "leaf": -0.0305379126 }, 
        { "nodeid": 8, "leaf": -0.0121204546 }
      ]}, 
      { "nodeid": 4, "depth": 2, "split": "born_usa", "split_condition": 1, "yes": 9, "no": 10, "missing": 10 , "children": [
        { "nodeid": 9, "leaf": -0.00587743474 }, 
        { "nodeid": 10, "leaf": 0.00283108372 }
      ]}
    ]}, 
    { "nodeid": 2, "depth": 1, "split": "born_usa", "split_condition": 1, "yes": 5, "no": 6, "missing": 6 , "children": [
      { "nodeid": 5, "depth": 2, "split": "race_ethnicityBlack", "split_condition": 1, "yes": 11, "no": 12, "missing": 12 , "children": [
        { "nodeid": 11, "leaf": -0.0130748125 }, 
        { "nodeid": 12, "leaf": 0.0263317227 }
      ]}, 
      { "nodeid": 6, "depth": 2, "split": "race_ethnicityBlack", "split_condition": 1, "yes": 13, "no": 14, "missing": 14 , "children": [
        { "nodeid": 13, "leaf": 0.0081910789 }, 
        { "nodeid": 14, "leaf": 0.0159259532 }
      ]}
    ]}
  ]},
  { "nodeid": 0, "depth": 0, "split": "birth_year", "split_condition": 1975, "yes": 1, "no": 2, "missing": 2 , "children": [
    { "nodeid": 1, "depth": 1, "split": "incomepir", "split_condition": 4.53000021, "yes": 3, "no": 4, "missing": 4 , "children": [
      { "nodeid": 3, "depth": 2, "split": "birth_year", "split_condition": 1942, "yes": 7, "no": 8, "missing": 8 , "children": [
        { "nodeid": 7, "leaf": -0.0112892007 }, 
        { "nodeid": 8, "leaf": 0.0190367047 }
      ]}, 
      { "nodeid": 4, "depth": 2, "split": "birth_year", "split_condition": 1967, "yes": 9, "no": 10, "missing": 10 , "children": [
        { "nodeid": 9, "leaf": -0.00982753746 }, 
        { "nodeid": 10, "leaf": -0.0653613284 }
      ]}
    ]}, 
    { "nodeid": 2, "depth": 1, "split": "birth_year", "split_condition": 1995, "yes": 5, "no": 6, "missing": 6 , "children": [
      { "nodeid": 5, "depth": 2, "split": "race_ethnicityWhite", "split_condition": 1, "yes": 11, "no": 12, "missing": 12 , "children": [
        { "nodeid": 11, "leaf": -0.035693828 }, 
        { "nodeid": 12, "leaf": -0.0111817336 }
      ]}, 
      { "nodeid": 6, "depth": 2, "split": "incomepir", "split_condition": 0.209999993, "yes": 13, "no": 14, "missing": 14 , "children": [
        { "nodeid": 13, "leaf": -0.00781760085 }, 
        { "nodeid": 14, "leaf": -0.0541193075 }
      ]}
    ]}
  ]},
  { "nodeid": 0, "depth": 0, "split": "birth_year", "split_condition": 1977, "yes": 1, "no": 2, "missing": 2 , "children": [
    { "nodeid": 1, "depth": 1, "split": "race_ethnicityBlack", "split_condition": 1, "yes": 3, "no": 4, "missing": 4 , "children": [
      { "nodeid": 3, "depth": 2, "split": "birth_year", "split_condition": 1949, "yes": 7, "no": 8, "missing": 8 , "children": [
        { "nodeid": 7, "leaf": -0.0173124131 }, 
        { "nodeid": 8, "leaf": 0.0106126117 }
      ]}, 
      { "nodeid": 4, "depth": 2, "split": "birth_year", "split_condition": 1968, "yes": 9, "no": 10, "missing": 10 , "children": [
        { "nodeid": 9, "leaf": 0.0279897954 }, 
        { "nodeid": 10, "leaf": -0.0212994236 }
      ]}
    ]}, 
    { "nodeid": 2, "depth": 1, "split": "race_ethnicityWhite", "split_condition": 1, "yes": 5, "no": 6, "missing": 6 , "children": [
      { "nodeid": 5, "depth": 2, "split": "birth_year", "split_condition": 1991, "yes": 11, "no": 12, "missing": 12 , "children": [
        { "nodeid": 11, "leaf": -0.0326589532 }, 
        { "nodeid": 12, "leaf": -0.0503431931 }
      ]}, 
      { "nodeid": 6, "depth": 2, "split": "birth_year", "split_condition": 1998, "yes": 13, "no": 14, "missing": 14 , "children": [
        { "nodeid": 13, "leaf": -0.0109484559 }, 
        { "nodeid": 14, "leaf": -0.056817662 }
      ]}
    ]}
  ]},
  { "nodeid": 0, "depth": 0, "split": "birth_year", "split_condition": 1971, "yes": 1, "no": 2, "missing": 2 , "children": [
    { "nodeid": 1, "depth": 1, "split": "incomepir", "split_condition": 4.53000021, "yes": 3, "no": 4, "missing": 4 , "children": [
      { "nodeid": 3, "depth": 2, "split": "birth_year", "split_condition": 1949, "yes": 7, "no": 8, "missing": 8 , "children": [
        { "nodeid": 7, "leaf": -0.00334866508 }, 
        { "nodeid": 8, "leaf": 0.0229934361 }
      ]}, 
      { "nodeid": 4, "depth": 2, "split": "male", "split_condition": 1, "yes": 9, "no": 10, "missing": 10 , "children": [
        { "nodeid": 9, "leaf": -0.0426304489 }, 
        { "nodeid": 10, "leaf": -0.00175847579 }
      ]}
    ]}, 
    { "nodeid": 2, "depth": 1, "split": "incomepir", "split_condition": 1.27999997, "yes": 5, "no": 6, "missing": 6 , "children": [
      { "nodeid": 5, "depth": 2, "split": "birth_year", "split_condition": 1985, "yes": 11, "no": 12, "missing": 12 , "children": [
        { "nodeid": 11, "leaf": 0.00427894387 }, 
        { "nodeid": 12, "leaf": -0.0312212445 }
      ]}, 
      { "nodeid": 6, "depth": 2, "split": "birth_year", "split_condition": 1972, "yes": 13, "no": 14, "missing": 14 , "children": [
        { "nodeid": 13, "leaf": -0.0841562375 }, 
        { "nodeid": 14, "leaf": -0.0380768068 }
      ]}
    ]}
  ]},
  { "nodeid": 0, "depth": 0, "split": "birth_year", "split_condition": 1968, "yes": 1, "no": 2, "missing": 2 , "children": [
    { "nodeid": 1, "depth": 1, "split": "birth_year", "split_condition": 1951, "yes": 3, "no": 4, "missing": 4 , "children": [
      { "nodeid": 3, "depth": 2, "split": "race_ethnicityWhite", "split_condition": 1, "yes": 7, "no": 8, "missing": 8 , "children": [
        { "nodeid": 7, "leaf": 0.011665239 }, 
        { "nodeid": 8, "leaf": -0.0210476294 }
      ]}, 
      { "nodeid": 4, "depth": 2, "split": "born_usa", "split_condition": 1, "yes": 9, "no": 10, "missing": 10 , "children": [
        { "nodeid": 9, "leaf": -0.0222431924 }, 
        { "nodeid": 10, "leaf": 0.0234697536 }
      ]}
    ]}, 
    { "nodeid": 2, "depth": 1, "split": "birth_year", "split_condition": 1991, "yes": 5, "no": 6, "missing": 6 , "children": [
      { "nodeid": 5, "depth": 2, "split": "incomepir", "split_condition": 2.55999994, "yes": 11, "no": 12, "missing": 12 , "children": [
        { "nodeid": 11, "leaf": 8.8375069e-05 }, 
        { "nodeid": 12, "leaf": -0.0417775176 }
      ]}, 
      { "nodeid": 6, "depth": 2, "split": "race_ethnicityAsian/Other", "split_condition": 1, "yes": 13, "no": 14, "missing": 14 , "children": [
        { "nodeid": 13, "leaf": -0.0472588539 }, 
        { "nodeid": 14, "leaf": -0.00345360464 }
      ]}
    ]}
  ]},
  { "nodeid": 0, "depth": 0, "split": "incomepir", "split_condition": 1.63, "yes": 1, "no": 2, "missing": 2 , "children": [
    { "nodeid": 1, "depth": 1, "split": "born_usa", "split_condition": 1, "yes": 3, "no": 4, "missing": 4 , "children": [
      { "nodeid": 3, "depth": 2, "split": "incomepir", "split_condition": 1.60000002, "yes": 7, "no": 8, "missing": 8 , "children": [
        { "nodeid": 7, "leaf": -0.0136819808 }, 
        { "nodeid": 8, "leaf": 0.0554608218 }
      ]}, 
      { "nodeid": 4, "depth": 2, "split": "male", "split_condition": 1, "yes": 9, "no": 10, "missing": 10 , "children": [
        { "nodeid": 9, "leaf": 0.00510988897 }, 
        { "nodeid": 10, "leaf": 0.0199373569 }
      ]}
    ]}, 
    { "nodeid": 2, "depth": 1, "split": "male", "split_condition": 1, "yes": 5, "no": 6, "missing": 6 , "children": [
      { "nodeid": 5, "depth": 2, "split": "race_ethnicityBlack", "split_condition": 1, "yes": 11, "no": 12, "missing": 12 , "children": [
        { "nodeid": 11, "leaf": -0.0244105086 }, 
        { "nodeid": 12, "leaf": -0.00571957417 }
      ]}, 
      { "nodeid": 6, "depth": 2, "split": "incomepir", "split_condition": 4.38999987, "yes": 13, "no": 14, "missing": 14 , "children": [
        { "nodeid": 13, "leaf": 0.00512764184 }, 
        { "nodeid": 14, "leaf": -0.0151811084 }
      ]}
    ]}
  ]},
  { "nodeid": 0, "depth": 0, "split": "incomepir", "split_condition": 1.63, "yes": 1, "no": 2, "missing": 2 , "children": [
    { "nodeid": 1, "depth": 1, "split": "born_usa", "split_condition": 1, "yes": 3, "no": 4, "missing": 4 , "children": [
      { "nodeid": 3, "depth": 2, "split": "race_ethnicityBlack", "split_condition": 1, "yes": 7, "no": 8, "missing": 8 , "children": [
        { "nodeid": 7, "leaf": -0.0209522303 }, 
        { "nodeid": 8, "leaf": 0.0421570353 }
      ]}, 
      { "nodeid": 4, "depth": 2, "split": "incomepir", "split_condition": 1.03999996, "yes": 9, "no": 10, "missing": 10 , "children": [
        { "nodeid": 9, "leaf": 0.0181042366 }, 
        { "nodeid": 10, "leaf": 0.00663387636 }
      ]}
    ]}, 
    { "nodeid": 2, "depth": 1, "split": "race_ethnicityBlack", "split_condition": 1, "yes": 5, "no": 6, "missing": 6 , "children": [
      { "nodeid": 5, "depth": 2, "split": "incomepir", "split_condition": 2.72000003, "yes": 11, "no": 12, "missing": 12 , "children": [
        { "nodeid": 11, "leaf": -0.00529668434 }, 
        { "nodeid": 12, "leaf": -0.0190988462 }
      ]}, 
      { "nodeid": 6, "depth": 2, "split": "incomepir", "split_condition": 1.70000005, "yes": 13, "no": 14, "missing": 14 , "children": [
        { "nodeid": 13, "leaf": -0.0653042421 }, 
        { "nodeid": 14, "leaf": 0.00560466992 }
      ]}
    ]}
  ]},
  { "nodeid": 0, "depth": 0, "split": "incomepir", "split_condition": 2.77999997, "yes": 1, "no": 2, "missing": 2 , "children": [
    { "nodeid": 1, "depth": 1, "split": "born_usa", "split_condition": 1, "yes": 3, "no": 4, "missing": 4 , "children": [
      { "nodeid": 3, "depth": 2, "split": "male", "split_condition": 1, "yes": 7, "no": 8, "missing": 8 , "children": [
        { "nodeid": 7, "leaf": -0.0266085416 }, 
        { "nodeid": 8, "leaf": -0.0045911218 }
      ]}, 
      { "nodeid": 4, "depth": 2, "split": "male", "split_condition": 1, "yes": 9, "no": 10, "missing": 10 , "children": [
        { "nodeid": 9, "leaf": 0.000490148028 }, 
        { "nodeid": 10, "leaf": 0.0154742701 }
      ]}
    ]}, 
    { "nodeid": 2, "depth": 1, "split": "incomepir", "split_condition": 2.82999992, "yes": 5, "no": 6, "missing": 6 , "children": [
      { "nodeid": 5, "leaf": -0.0850791857 }, 
      { "nodeid": 6, "depth": 2, "split": "incomepir", "split_condition": 3.32999992, "yes": 11, "no": 12, "missing": 12 , "children": [
        { "nodeid": 11, "leaf": -0.000478803471 }, 
        { "nodeid": 12, "leaf": -0.0153858215 }
      ]}
    ]}
  ]},
  { "nodeid": 0, "depth": 0, "split": "birth_year", "split_condition": 1967, "yes": 1, "no": 2, "missing": 2 , "children": [
    { "nodeid": 1, "depth": 1, "split": "birth_year", "split_condition": 1951, "yes": 3, "no": 4, "missing": 4 , "children": [
      { "nodeid": 3, "depth": 2, "split": "race_ethnicityBlack", "split_condition": 1, "yes": 7, "no": 8, "missing": 8 , "children": [
        { "nodeid": 7, "leaf": -0.0121239722 }, 
        { "nodeid": 8, "leaf": 0.0160802808 }
      ]}, 
      { "nodeid": 4, "depth": 2, "split": "born_usa", "split_condition": 1, "yes": 9, "no": 10, "missing": 10 , "children": [
        { "nodeid": 9, "leaf": -0.00815560017 }, 
        { "nodeid": 10, "leaf": 0.0243865065 }
      ]}
    ]}, 
    { "nodeid": 2, "depth": 1, "split": "incomepir", "split_condition": 2.77999997, "yes": 5, "no": 6, "missing": 6 , "children": [
      { "nodeid": 5, "depth": 2, "split": "birth_year", "split_condition": 1994, "yes": 11, "no": 12, "missing": 12 , "children": [
        { "nodeid": 11, "leaf": -0.00437918073 }, 
        { "nodeid": 12, "leaf": -0.0492931418 }
      ]}, 
      { "nodeid": 6, "depth": 2, "split": "birth_year", "split_condition": 1978, "yes": 13, "no": 14, "missing": 14 , "children": [
        { "nodeid": 13, "leaf": -0.0612011738 }, 
        { "nodeid": 14, "leaf": -0.0303874351 }
      ]}
    ]}
  ]},
  { "nodeid": 0, "depth": 0, "split": "male", "split_condition": 1, "yes": 1, "no": 2, "missing": 2 , "children": [
    { "nodeid": 1, "depth": 1, "split": "race_ethnicityBlack", "split_condition": 1, "yes": 3, "no": 4, "missing": 4 , "children": [
      { "nodeid": 3, "depth": 2, "split": "born_usa", "split_condition": 1, "yes": 7, "no": 8, "missing": 8 , "children": [
        { "nodeid": 7, "leaf": -0.0234351289 }, 
        { "nodeid": 8, "leaf": -0.0113793928 }
      ]}, 
      { "nodeid": 4, "depth": 2, "split": "born_usa", "split_condition": 1, "yes": 9, "no": 10, "missing": 10 , "children": [
        { "nodeid": 9, "leaf": -0.0199556071 }, 
        { "nodeid": 10, "leaf": 0.0057064048 }
      ]}
    ]}, 
    { "nodeid": 2, "depth": 1, "split": "born_usa", "split_condition": 1, "yes": 5, "no": 6, "missing": 6 , "children": [
      { "nodeid": 5, "depth": 2, "split": "race_ethnicityHispanic", "split_condition": 1, "yes": 11, "no": 12, "missing": 12 , "children": [
        { "nodeid": 11, "leaf": 0.00516662747 }, 
        { "nodeid": 12, "leaf": -0.022875376 }
      ]}, 
      { "nodeid": 6, "depth": 2, "split": "race_ethnicityWhite", "split_condition": 1, "yes": 13, "no": 14, "missing": 14 , "children": [
        { "nodeid": 13, "leaf": 0.0120492978 }, 
        { "nodeid": 14, "leaf": 0.00330814393 }
      ]}
    ]}
  ]},
  { "nodeid": 0, "depth": 0, "split": "male", "split_condition": 1, "yes": 1, "no": 2, "missing": 2 , "children": [
    { "nodeid": 1, "depth": 1, "split": "race_ethnicityBlack", "split_condition": 1, "yes": 3, "no": 4, "missing": 4 , "children": [
      { "nodeid": 3, "depth": 2, "split": "born_usa", "split_condition": 1, "yes": 7, "no": 8, "missing": 8 , "children": [
        { "nodeid": 7, "leaf": -0.0171890222 }, 
        { "nodeid": 8, "leaf": -0.00898450706 }
      ]}, 
      { "nodeid": 4, "depth": 2, "split": "born_usa", "split_condition": 1, "yes": 9, "no": 10, "missing": 10 , "children": [
        { "nodeid": 9, "leaf": -0.018660944 }, 
        { "nodeid": 10, "leaf": 0.00159494241 }
      ]}
    ]}, 
    { "nodeid": 2, "depth": 1, "split": "born_usa", "split_condition": 1, "yes": 5, "no": 6, "missing": 6 , "children": [
      { "nodeid": 5, "depth": 2, "split": "race_ethnicityHispanic", "split_condition": 1, "yes": 11, "no": 12, "missing": 12 , "children": [
        { "nodeid": 11, "leaf": 0.00511387223 }, 
        { "nodeid": 12, "leaf": -0.0192192327 }
      ]}, 
      { "nodeid": 6, "depth": 2, "split": "race_ethnicityWhite", "split_condition": 1, "yes": 13, "no": 14, "missing": 14 , "children": [
        { "nodeid": 13, "leaf": 0.014092681 }, 
        { "nodeid": 14, "leaf": 0.00651624007 }
      ]}
    ]}
  ]},
  { "nodeid": 0, "depth": 0, "split": "birth_year", "split_condition": 1977, "yes": 1, "no": 2, "missing": 2 , "children": [
    { "nodeid": 1, "depth": 1, "split": "male", "split_condition": 1, "yes": 3, "no": 4, "missing": 4 , "children": [
      { "nodeid": 3, "depth": 2, "split": "birth_year", "split_condition": 1934, "yes": 7, "no": 8, "missing": 8 , "children": [
        { "nodeid": 7, "leaf": -0.0259690825 }, 
        { "nodeid": 8, "leaf": 0.000985796913 }
      ]}, 
      { "nodeid": 4, "depth": 2, "split": "born_usa", "split_condition": 1, "yes": 9, "no": 10, "missing": 10 , "children": [
        { "nodeid": 9, "leaf": -0.0044974694 }, 
        { "nodeid": 10, "leaf": 0.0173597541 }
      ]}
    ]}, 
    { "nodeid": 2, "depth": 1, "split": "birth_year", "split_condition": 1995, "yes": 5, "no": 6, "missing": 6 , "children": [
      { "nodeid": 5, "depth": 2, "split": "race_ethnicityHispanic", "split_condition": 1, "yes": 11, "no": 12, "missing": 12 , "children": [
        { "nodeid": 11, "leaf": -0.0180953983 }, 
        { "nodeid": 12, "leaf": -0.0432785414 }
      ]}, 
      { "nodeid": 6, "depth": 2, "split": "birth_year", "split_condition": 1998, "yes": 13, "no": 14, "missing": 14 , "children": [
        { "nodeid": 13, "leaf": -0.0421190262 }, 
        { "nodeid": 14, "leaf": -0.0560217164 }
      ]}
    ]}
  ]},
  { "nodeid": 0, "depth": 0, "split": "birth_year", "split_condition": 1983, "yes": 1, "no": 2, "missing": 2 , "children": [
    { "nodeid": 1, "depth": 1, "split": "birth_year", "split_condition": 1945, "yes": 3, "no": 4, "missing": 4 , "children": [
      { "nodeid": 3, "depth": 2, "split": "race_ethnicityWhite", "split_condition": 1, "yes": 7, "no": 8, "missing": 8 , "children": [
        { "nodeid": 7, "leaf": -0.00206988561 }, 
        { "nodeid": 8, "leaf": -0.0277555641 }
      ]}, 
      { "nodeid": 4, "depth": 2, "split": "birth_year", "split_condition": 1967, "yes": 9, "no": 10, "missing": 10 , "children": [
        { "nodeid": 9, "leaf": 0.0151959807 }, 
        { "nodeid": 10, "leaf": -0.00739963958 }
      ]}
    ]}, 
    { "nodeid": 2, "depth": 1, "split": "race_ethnicityWhite", "split_condition": 1, "yes": 5, "no": 6, "missing": 6 , "children": [
      { "nodeid": 5, "depth": 2, "split": "incomepir", "split_condition": 0.270000011, "yes": 11, "no": 12, "missing": 12 , "children": [
        { "nodeid": 11, "leaf": -0.002323227 }, 
        { "nodeid": 12, "leaf": -0.0472047403 }
      ]}, 
      { "nodeid": 6, "depth": 2, "split": "incomepir", "split_condition": 0.879999995, "yes": 13, "no": 14, "missing": 14 , "children": [
        { "nodeid": 13, "leaf": 0.0356092863 }, 
        { "nodeid": 14, "leaf": -0.0376780629 }
      ]}
    ]}
  ]},
  { "nodeid": 0, "depth": 0, "split": "birth_year", "split_condition": 1983, "yes": 1, "no": 2, "missing": 2 , "children": [
    { "nodeid": 1, "depth": 1, "split": "incomepir", "split_condition": 3.97000003, "yes": 3, "no": 4, "missing": 4 , "children": [
      { "nodeid": 3, "depth": 2, "split": "birth_year", "split_condition": 1947, "yes": 7, "no": 8, "missing": 8 , "children": [
        { "nodeid": 7, "leaf": -0.00775477244 }, 
        { "nodeid": 8, "leaf": 0.0161556955 }
      ]}, 
      { "nodeid": 4, "depth": 2, "split": "birth_year", "split_condition": 1967, "yes": 9, "no": 10, "missing": 10 , "children": [
        { "nodeid": 9, "leaf": -0.00867901556 }, 
        { "nodeid": 10, "leaf": -0.0452455059 }
      ]}
    ]}, 
    { "nodeid": 2, "depth": 1, "split": "birth_year", "split_condition": 2000, "yes": 5, "no": 6, "missing": 6 , "children": [
      { "nodeid": 5, "depth": 2, "split": "race_ethnicityWhite", "split_condition": 1, "yes": 11, "no": 12, "missing": 12 , "children": [
        { "nodeid": 11, "leaf": -0.0347223468 }, 
        { "nodeid": 12, "leaf": -0.0134563046 }
      ]}, 
      { "nodeid": 6, "leaf": -0.0554615632 }
    ]}
  ]},
  { "nodeid": 0, "depth": 0, "split": "birth_year", "split_condition": 1985, "yes": 1, "no": 2, "missing": 2 , "children": [
    { "nodeid": 1, "depth": 1, "split": "born_usa", "split_condition": 1, "yes": 3, "no": 4, "missing": 4 , "children": [
      { "nodeid": 3, "depth": 2, "split": "birth_year", "split_condition": 1954, "yes": 7, "no": 8, "missing": 8 , "children": [
        { "nodeid": 7, "leaf": 0.00849480275 }, 
        { "nodeid": 8, "leaf": -0.0333059803 }
      ]}, 
      { "nodeid": 4, "depth": 2, "split": "incomepir", "split_condition": 1.14999998, "yes": 9, "no": 10, "missing": 10 , "children": [
        { "nodeid": 9, "leaf": 0.0216458905 }, 
        { "nodeid": 10, "leaf": 0.00130029838 }
      ]}
    ]}, 
    { "nodeid": 2, "depth": 1, "split": "birth_year", "split_condition": 1995, "yes": 5, "no": 6, "missing": 6 , "children": [
      { "nodeid": 5, "depth": 2, "split": "birth_year", "split_condition": 1987, "yes": 11, "no": 12, "missing": 12 , "children": [
        { "nodeid": 11, "leaf": -0.048707284 }, 
        { "nodeid": 12, "leaf": -0.0137978485 }
      ]}, 
      { "nodeid": 6, "depth": 2, "split": "birth_year", "split_condition": 1998, "yes": 13, "no": 14, "missing": 14 , "children": [
        { "nodeid": 13, "leaf": -0.0404452644 }, 
        { "nodeid": 14, "leaf": -0.0552318953 }
      ]}
    ]}
  ]},
  { "nodeid": 0, "depth": 0, "split": "birth_year", "split_condition": 1967, "yes": 1, "no": 2, "missing": 2 , "children": [
    { "nodeid": 1, "depth": 1, "split": "birth_year", "split_condition": 1949, "yes": 3, "no": 4, "missing": 4 , "children": [
      { "nodeid": 3, "depth": 2, "split": "race_ethnicityWhite", "split_condition": 1, "yes": 7, "no": 8, "missing": 8 , "children": [
        { "nodeid": 7, "leaf": 0.00516274711 }, 
        { "nodeid": 8, "leaf": -0.0299503356 }
      ]}, 
      { "nodeid": 4, "depth": 2, "split": "born_usa", "split_condition": 1, "yes": 9, "no": 10, "missing": 10 , "children": [
        { "nodeid": 9, "leaf": -0.00922843255 }, 
        { "nodeid": 10, "leaf": 0.0180094447 }
      ]}
    ]}, 
    { "nodeid": 2, "depth": 1, "split": "birth_year", "split_condition": 1995, "yes": 5, "no": 6, "missing": 6 , "children": [
      { "nodeid": 5, "depth": 2, "split": "born_usa", "split_condition": 1, "yes": 11, "no": 12, "missing": 12 , "children": [
        { "nodeid": 11, "leaf": -0.0389407948 }, 
        { "nodeid": 12, "leaf": -0.00900528487 }
      ]}, 
      { "nodeid": 6, "depth": 2, "split": "race_ethnicityAsian/Other", "split_condition": 1, "yes": 13, "no": 14, "missing": 14 , "children": [
        { "nodeid": 13, "leaf": -0.0551030524 }, 
        { "nodeid": 14, "leaf": -0.0221484359 }
      ]}
    ]}
  ]},
  { "nodeid": 0, "depth": 0, "split": "born_usa", "split_condition": 1, "yes": 1, "no": 2, "missing": 2 , "children": [
    { "nodeid": 1, "depth": 1, "split": "race_ethnicityBlack", "split_condition": 1, "yes": 3, "no": 4, "missing": 4 , "children": [
      { "nodeid": 3, "depth": 2, "split": "race_ethnicityWhite", "split_condition": 1, "yes": 7, "no": 8, "missing": 8 , "children": [
        { "nodeid": 7, "leaf": -0.0158448592 }, 
        { "nodeid": 8, "leaf": -0.0375017188 }
      ]}, 
      { "nodeid": 4, "depth": 2, "split": "male", "split_condition": 1, "yes": 9, "no": 10, "missing": 10 , "children": [
        { "nodeid": 9, "leaf": 0.000619991159 }, 
        { "nodeid": 10, "leaf": 0.0156158581 }
      ]}
    ]}, 
    { "nodeid": 2, "depth": 1, "split": "male", "split_condition": 1, "yes": 5, "no": 6, "missing": 6 , "children": [
      { "nodeid": 5, "depth": 2, "split": "race_ethnicityAsian/Other", "split_condition": 1, "yes": 11, "no": 12, "missing": 12 , "children": [
        { "nodeid": 11, "leaf": -0.00437506242 }, 
        { "nodeid": 12, "leaf": 0.014538276 }
      ]}, 
      { "nodeid": 6, "depth": 2, "split": "race_ethnicityWhite", "split_condition": 1, "yes": 13, "no": 14, "missing": 14 , "children": [
        { "nodeid": 13, "leaf": 0.0117544802 }, 
        { "nodeid": 14, "leaf": 0.00419270806 }
      ]}
    ]}
  ]},
  { "nodeid": 0, "depth": 0, "split": "birth_year", "split_condition": 1967, "yes": 1, "no": 2, "missing": 2 , "children": [
    { "nodeid": 1, "depth": 1, "split": "incomepir", "split_condition": 3.73000002, "yes": 3, "no": 4, "missing": 4 , "children": [
      { "nodeid": 3, "depth": 2, "split": "birth_year", "split_condition": 1949, "yes": 7, "no": 8, "missing": 8 , "children": [
        { "nodeid": 7, "leaf": -0.00437745033 }, 
        { "nodeid": 8, "leaf": 0.0219312366 }
      ]}, 
      { "nodeid": 4, "depth": 2, "split": "male", "split_condition": 1, "yes": 9, "no": 10, "missing": 10 , "children": [
        { "nodeid": 9, "leaf": -0.0213194452 }, 
        { "nodeid": 10, "leaf": -0.00324660772 }
      ]}
    ]}, 
    { "nodeid": 2, "depth": 1, "split": "incomepir", "split_condition": 1.50999999, "yes": 5, "no": 6, "missing": 6 , "children": [
      { "nodeid": 5, "depth": 2, "split": "birth_year", "split_condition": 1994, "yes": 11, "no": 12, "missing": 12 , "children": [
        { "nodeid": 11, "leaf": 0.0035093599 }, 
        { "nodeid": 12, "leaf": -0.0423987955 }
      ]}, 
      { "nodeid": 6, "depth": 2, "split": "birth_year", "split_condition": 1995, "yes": 13, "no": 14, "missing": 14 , "children": [
        { "nodeid": 13, "leaf": -0.0236566346 }, 
        { "nodeid": 14, "leaf": -0.0540251732 }
      ]}
    ]}
  ]},
  { "nodeid": 0, "depth": 0, "split": "birth_year", "split_condition": 1966, "yes": 1, "no": 2, "missing": 2 , "children": [
    { "nodeid": 1, "depth": 1, "split": "birth_year", "split_condition": 1941, "yes": 3, "no": 4, "missing": 4 , "children": [
      { "nodeid": 3, "depth": 2, "split": "incomepir", "split_condition": 1.13999999, "yes": 7, "no": 8, "missing": 8 , "children": [
        { "nodeid": 7, "leaf": 0.0178884864 }, 
        { "nodeid": 8, "leaf": -0.021235263 }
      ]}, 
      { "nodeid": 4, "depth": 2, "split": "incomepir", "split_condition": 3.41000009, "yes": 9, "no": 10, "missing": 10 , "children": [
        { "nodeid": 9, "leaf": 0.0187275764 }, 
        { "nodeid": 10, "leaf": 0.000975025527 }
      ]}
    ]}, 
    { "nodeid": 2, "depth": 1, "split": "incomepir", "split_condition": 2.45000005, "yes": 5, "no": 6, "missing": 6 , "children": [
      { "nodeid": 5, "depth": 2, "split": "birth_year", "split_condition": 1994, "yes": 11, "no": 12, "missing": 12 , "children": [
        { "nodeid": 11, "leaf": 0.00106395583 }, 
        { "nodeid": 12, "leaf": -0.0502452739 }
      ]}, 
      { "nodeid": 6, "depth": 2, "split": "incomepir", "split_condition": 3.54999995, "yes": 13, "no": 14, "missing": 14 , "children": [
        { "nodeid": 13, "leaf": -0.0518396683 }, 
        { "nodeid": 14, "leaf": -0.0263417196 }
      ]}
    ]}
  ]},
  { "nodeid": 0, "depth": 0, "split": "incomepir", "split_condition": 3.3900001, "yes": 1, "no": 2, "missing": 2 , "children": [
    { "nodeid": 1, "depth": 1, "split": "born_usa", "split_condition": 1, "yes": 3, "no": 4, "missing": 4 , "children": [
      { "nodeid": 3, "depth": 2, "split": "incomepir", "split_condition": 3.32999992, "yes": 7, "no": 8, "missing": 8 , "children": [
        { "nodeid": 7, "leaf": -0.0143212294 }, 
        { "nodeid": 8, "leaf": 0.0977996737 }
      ]}, 
      { "nodeid": 4, "depth": 2, "split": "male", "split_condition": 1, "yes": 9, "no": 10, "missing": 10 , "children": [
        { "nodeid": 9, "leaf": -5.60401986e-06 }, 
        { "nodeid": 10, "leaf": 0.0122270687 }
      ]}
    ]}, 
    { "nodeid": 2, "depth": 1, "split": "race_ethnicityWhite", "split_condition": 1, "yes": 5, "no": 6, "missing": 6 , "children": [
      { "nodeid": 5, "depth": 2, "split": "born_usa", "split_condition": 1, "yes": 11, "no": 12, "missing": 12 , "children": [
        { "nodeid": 11, "leaf": -0.0250719339 }, 
        { "nodeid": 12, "leaf": -0.000151320433 }
      ]}, 
      { "nodeid": 6, "depth": 2, "split": "incomepir", "split_condition": 3.86999989, "yes": 13, "no": 14, "missing": 14 , "children": [
        { "nodeid": 13, "leaf": -0.0390460826 }, 
        { "nodeid": 14, "leaf": -0.0136818858 }
      ]}
    ]}
  ]},
  { "nodeid": 0, "depth": 0, "split": "birth_year", "split_condition": 1967, "yes": 1, "no": 2, "missing": 2 , "children": [
    { "nodeid": 1, "depth": 1, "split": "race_ethnicityWhite", "split_condition": 1, "yes": 3, "no": 4, "missing": 4 , "children": [
      { "nodeid": 3, "depth": 2, "split": "birth_year", "split_condition": 1933, "yes": 7, "no": 8, "missing": 8 , "children": [
        { "nodeid": 7, "leaf": -0.0119121922 }, 
        { "nodeid": 8, "leaf": 0.017361125 }
      ]}, 
      { "nodeid": 4, "depth": 2, "split": "birth_year", "split_condition": 1952, "yes": 9, "no": 10, "missing": 10 , "children": [
        { "nodeid": 9, "leaf": -0.0175502673 }, 
        { "nodeid": 10, "leaf": 0.00844998378 }
      ]}
    ]}, 
    { "nodeid": 2, "depth": 1, "split": "birth_year", "split_condition": 1995, "yes": 5, "no": 6, "missing": 6 , "children": [
      { "nodeid": 5, "depth": 2, "split": "race_ethnicityWhite", "split_condition": 1, "yes": 11, "no": 12, "missing": 12 , "children": [
        { "nodeid": 11, "leaf": -0.0218208395 }, 
        { "nodeid": 12, "leaf": 0.000659706653 }
      ]}, 
      { "nodeid": 6, "depth": 2, "split": "incomepir", "split_condition": 0.209999993, "yes": 13, "no": 14, "missing": 14 , "children": [
        { "nodeid": 13, "leaf": 0.0145885497 }, 
        { "nodeid": 14, "leaf": -0.0542854965 }
      ]}
    ]}
  ]},
  { "nodeid": 0, "depth": 0, "split": "birth_year", "split_condition": 1983, "yes": 1, "no": 2, "missing": 2 , "children": [
    { "nodeid": 1, "depth": 1, "split": "incomepir", "split_condition": 1.37, "yes": 3, "no": 4, "missing": 4 , "children": [
      { "nodeid": 3, "depth": 2, "split": "birth_year", "split_condition": 1933, "yes": 7, "no": 8, "missing": 8 , "children": [
        { "nodeid": 7, "leaf": -0.0163099375 }, 
        { "nodeid": 8, "leaf": 0.0175816435 }
      ]}, 
      { "nodeid": 4, "depth": 2, "split": "male", "split_condition": 1, "yes": 9, "no": 10, "missing": 10 , "children": [
        { "nodeid": 9, "leaf": -0.0163908452 }, 
        { "nodeid": 10, "leaf": 0.00666764891 }
      ]}
    ]}, 
    { "nodeid": 2, "depth": 1, "split": "race_ethnicityWhite", "split_condition": 1, "yes": 5, "no": 6, "missing": 6 , "children": [
      { "nodeid": 5, "depth": 2, "split": "male", "split_condition": 1, "yes": 11, "no": 12, "missing": 12 , "children": [
        { "nodeid": 11, "leaf": -0.022862006 }, 
        { "nodeid": 12, "leaf": -0.050449878 }
      ]}, 
      { "nodeid": 6, "depth": 2, "split": "incomepir", "split_condition": 0.889999986, "yes": 13, "no": 14, "missing": 14 , "children": [
        { "nodeid": 13, "leaf": 0.0315473191 }, 
        { "nodeid": 14, "leaf": -0.0294889417 }
      ]}
    ]}
  ]},
  { "nodeid": 0, "depth": 0, "split": "born_usa", "split_condition": 1, "yes": 1, "no": 2, "missing": 2 , "children": [
    { "nodeid": 1, "depth": 1, "split": "male", "split_condition": 1, "yes": 3, "no": 4, "missing": 4 , "children": [
      { "nodeid": 3, "depth": 2, "split": "race_ethnicityWhite", "split_condition": 1, "yes": 7, "no": 8, "missing": 8 , "children": [
        { "nodeid": 7, "leaf": -0.024975149 }, 
        { "nodeid": 8, "leaf": -0.0737350509 }
      ]}, 
      { "nodeid": 4, "depth": 2, "split": "race_ethnicityBlack", "split_condition": 1, "yes": 9, "no": 10, "missing": 10 , "children": [
        { "nodeid": 9, "leaf": -0.0137298033 }, 
        { "nodeid": 10, "leaf": 0.028976379 }
      ]}
    ]}, 
    { "nodeid": 2, "depth": 1, "split": "male", "split_condition": 1, "yes": 5, "no": 6, "missing": 6 , "children": [
      { "nodeid": 5, "depth": 2, "split": "race_ethnicityWhite", "split_condition": 1, "yes": 11, "no": 12, "missing": 12 , "children": [
        { "nodeid": 11, "leaf": 0.00106007908 }, 
        { "nodeid": 12, "leaf": -0.00765890256 }
      ]}, 
      { "nodeid": 6, "depth": 2, "split": "race_ethnicityAsian/Other", "split_condition": 1, "yes": 13, "no": 14, "missing": 14 , "children": [
        { "nodeid": 13, "leaf": 0.00579875242 }, 
        { "nodeid": 14, "leaf": 0.0164568033 }
      ]}
    ]}
  ]},
  { "nodeid": 0, "depth": 0, "split": "birth_year", "split_condition": 1967, "yes": 1, "no": 2, "missing": 2 , "children": [
    { "nodeid": 1, "depth": 1, "split": "birth_year", "split_condition": 1951, "yes": 3, "no": 4, "missing": 4 , "children": [
      { "nodeid": 3, "depth": 2, "split": "race_ethnicityWhite", "split_condition": 1, "yes": 7, "no": 8, "missing": 8 , "children": [
        { "nodeid": 7, "leaf": 0.00597627554 }, 
        { "nodeid": 8, "leaf": -0.0204822514 }
      ]}, 
      { "nodeid": 4, "depth": 2, "split": "incomepir", "split_condition": 4.55999994, "yes": 9, "no": 10, "missing": 10 , "children": [
        { "nodeid": 9, "leaf": 0.0172861349 }, 
        { "nodeid": 10, "leaf": -0.00637440849 }
      ]}
    ]}, 
    { "nodeid": 2, "depth": 1, "split": "incomepir", "split_condition": 2.77999997, "yes": 5, "no": 6, "missing": 6 , "children": [
      { "nodeid": 5, "depth": 2, "split": "birth_year", "split_condition": 1994, "yes": 11, "no": 12, "missing": 12 , "children": [
        { "nodeid": 11, "leaf": -0.00229705079 }, 
        { "nodeid": 12, "leaf": -0.0438138358 }
      ]}, 
      { "nodeid": 6, "depth": 2, "split": "incomepir", "split_condition": 3.54999995, "yes": 13, "no": 14, "missing": 14 , "children": [
        { "nodeid": 13, "leaf": -0.0661577284 }, 
        { "nodeid": 14, "leaf": -0.0302640703 }
      ]}
    ]}
  ]},
  { "nodeid": 0, "depth": 0, "split": "incomepir", "split_condition": 4.53000021, "yes": 1, "no": 2, "missing": 2 , "children": [
    { "nodeid": 1, "depth": 1, "split": "born_usa", "split_condition": 1, "yes": 3, "no": 4, "missing": 4 , "children": [
      { "nodeid": 3, "depth": 2, "split": "male", "split_condition": 1, "yes": 7, "no": 8, "missing": 8 , "children": [
        { "nodeid": 7, "leaf": -0.029877698 }, 
        { "nodeid": 8, "leaf": 0.00285238656 }
      ]}, 
      { "nodeid": 4, "depth": 2, "split": "incomepir", "split_condition": 1.16999996, "yes": 9, "no": 10, "missing": 10 , "children": [
        { "nodeid": 9, "leaf": 0.0154604809 }, 
        { "nodeid": 10, "leaf": 0.00134079345 }
      ]}
    ]}, 
    { "nodeid": 2, "depth": 1, "split": "incomepir", "split_condition": 4.63999987, "yes": 5, "no": 6, "missing": 6 , "children": [
      { "nodeid": 5, "depth": 2, "split": "incomepir", "split_condition": 4.55999994, "yes": 11, "no": 12, "missing": 12 , "children": [
        { "nodeid": 11, "leaf": -0.0170507096 }, 
        { "nodeid": 12, "leaf": -0.0805782154 }
      ]}, 
      { "nodeid": 6, "depth": 2, "split": "race_ethnicityAsian/Other", "split_condition": 1, "yes": 13, "no": 14, "missing": 14 , "children": [
        { "nodeid": 13, "leaf": -0.0153131634 }, 
        { "nodeid": 14, "leaf": -0.0391149931 }
      ]}
    ]}
  ]},
  { "nodeid": 0, "depth": 0, "split": "birth_year", "split_condition": 1977, "yes": 1, "no": 2, "missing": 2 , "children": [
    { "nodeid": 1, "depth": 1, "split": "male", "split_condition": 1, "yes": 3, "no": 4, "missing": 4 , "children": [
      { "nodeid": 3, "depth": 2, "split": "birth_year", "split_condition": 1967, "yes": 7, "no": 8, "missing": 8 , "children": [
        { "nodeid": 7, "leaf": 0.00182455464 }, 
        { "nodeid": 8, "leaf": -0.0178270452 }
      ]}, 
      { "nodeid": 4, "depth": 2, "split": "birth_year", "split_condition": 1944, "yes": 9, "no": 10, "missing": 10 , "children": [
        { "nodeid": 9, "leaf": -0.0082732318 }, 
        { "nodeid": 10, "leaf": 0.016196955 }
      ]}
    ]}, 
    { "nodeid": 2, "depth": 1, "split": "race_ethnicityHispanic", "split_condition": 1, "yes": 5, "no": 6, "missing": 6 , "children": [
      { "nodeid": 5, "depth": 2, "split": "birth_year", "split_condition": 2000, "yes": 11, "no": 12, "missing": 12 , "children": [
        { "nodeid": 11, "leaf": -0.00595580833 }, 
        { "nodeid": 12, "leaf": -0.0538499765 }
      ]}, 
      { "nodeid": 6, "depth": 2, "split": "birth_year", "split_condition": 1990, "yes": 13, "no": 14, "missing": 14 , "children": [
        { "nodeid": 13, "leaf": -0.031244969 }, 
        { "nodeid": 14, "leaf": -0.0554651618 }
      ]}
    ]}
  ]},
  { "nodeid": 0, "depth": 0, "split": "birth_year", "split_condition": 1977, "yes": 1, "no": 2, "missing": 2 , "children": [
    { "nodeid": 1, "depth": 1, "split": "male", "split_condition": 1, "yes": 3, "no": 4, "missing": 4 , "children": [
      { "nodeid": 3, "depth": 2, "split": "birth_year", "split_condition": 1952, "yes": 7, "no": 8, "missing": 8 , "children": [
        { "nodeid": 7, "leaf": -0.0161334109 }, 
        { "nodeid": 8, "leaf": 0.00159474614 }
      ]}, 
      { "nodeid": 4, "depth": 2, "split": "birth_year", "split_condition": 1921, "yes": 9, "no": 10, "missing": 10 , "children": [
        { "nodeid": 9, "leaf": -0.0808583125 }, 
        { "nodeid": 10, "leaf": 0.0120309768 }
      ]}
    ]}, 
    { "nodeid": 2, "depth": 1, "split": "race_ethnicityHispanic", "split_condition": 1, "yes": 5, "no": 6, "missing": 6 , "children": [
      { "nodeid": 5, "depth": 2, "split": "birth_year", "split_condition": 2000, "yes": 11, "no": 12, "missing": 12 , "children": [
        { "nodeid": 11, "leaf": -0.0079470491 }, 
        { "nodeid": 12, "leaf": -0.0536281578 }
      ]}, 
      { "nodeid": 6, "depth": 2, "split": "birth_year", "split_condition": 1990, "yes": 13, "no": 14, "missing": 14 , "children": [
        { "nodeid": 13, "leaf": -0.0301895142 }, 
        { "nodeid": 14, "leaf": -0.0551775657 }
      ]}
    ]}
  ]},
  { "nodeid": 0, "depth": 0, "split": "birth_year", "split_condition": 1980, "yes": 1, "no": 2, "missing": 2 , "children": [
    { "nodeid": 1, "depth": 1, "split": "incomepir", "split_condition": 2.45000005, "yes": 3, "no": 4, "missing": 4 , "children": [
      { "nodeid": 3, "depth": 2, "split": "birth_year", "split_condition": 1949, "yes": 7, "no": 8, "missing": 8 , "children": [
        { "nodeid": 7, "leaf": -0.00347350235 }, 
        { "nodeid": 8, "leaf": 0.0140012475 }
      ]}, 
      { "nodeid": 4, "depth": 2, "split": "birth_year", "split_condition": 1965, "yes": 9, "no": 10, "missing": 10 , "children": [
        { "nodeid": 9, "leaf": -0.00428331178 }, 
        { "nodeid": 10, "leaf": -0.0308961272 }
      ]}
    ]}, 
    { "nodeid": 2, "depth": 1, "split": "birth_year", "split_condition": 1995, "yes": 5, "no": 6, "missing": 6 , "children": [
      { "nodeid": 5, "depth": 2, "split": "incomepir", "split_condition": 1.05999994, "yes": 11, "no": 12, "missing": 12 , "children": [
        { "nodeid": 11, "leaf": -0.000522129238 }, 
        { "nodeid": 12, "leaf": -0.0263308324 }
      ]}, 
      { "nodeid": 6, "depth": 2, "split": "birth_year", "split_condition": 1998, "yes": 13, "no": 14, "missing": 14 , "children": [
        { "nodeid": 13, "leaf": -0.0338657908 }, 
        { "nodeid": 14, "leaf": -0.053483963 }
      ]}
    ]}
  ]},
  { "nodeid": 0, "depth": 0, "split": "incomepir", "split_condition": 1.16999996, "yes": 1, "no": 2, "missing": 2 , "children": [
    { "nodeid": 1, "depth": 1, "split": "race_ethnicityHispanic", "split_condition": 1, "yes": 3, "no": 4, "missing": 4 , "children": [
      { "nodeid": 3, "depth": 2, "split": "incomepir", "split_condition": 0.800000012, "yes": 7, "no": 8, "missing": 8 , "children": [
        { "nodeid": 7, "leaf": 0.00968095846 }, 
        { "nodeid": 8, "leaf": 0.0207426827 }
      ]}, 
      { "nodeid": 4, "depth": 2, "split": "born_usa", "split_condition": 1, "yes": 9, "no": 10, "missing": 10 , "children": [
        { "nodeid": 9, "leaf": -0.0256778188 }, 
        { "nodeid": 10, "leaf": 0.00928135682 }
      ]}
    ]}, 
    { "nodeid": 2, "depth": 1, "split": "incomepir", "split_condition": 1.19000006, "yes": 5, "no": 6, "missing": 6 , "children": [
      { "nodeid": 5, "leaf": -0.110165335 }, 
      { "nodeid": 6, "depth": 2, "split": "race_ethnicityBlack", "split_condition": 1, "yes": 11, "no": 12, "missing": 12 , "children": [
        { "nodeid": 11, "leaf": -0.0073757791 }, 
        { "nodeid": 12, "leaf": 0.00759398192 }
      ]}
    ]}
  ]},
  { "nodeid": 0, "depth": 0, "split": "incomepir", "split_condition": 4.53000021, "yes": 1, "no": 2, "missing": 2 , "children": [
    { "nodeid": 1, "depth": 1, "split": "incomepir", "split_condition": 4.3499999, "yes": 3, "no": 4, "missing": 4 , "children": [
      { "nodeid": 3, "depth": 2, "split": "incomepir", "split_condition": 4.07000017, "yes": 7, "no": 8, "missing": 8 , "children": [
        { "nodeid": 7, "leaf": 0.0029842013 }, 
        { "nodeid": 8, "leaf": -0.0359847248 }
      ]}, 
      { "nodeid": 4, "depth": 2, "split": "race_ethnicityHispanic", "split_condition": 1, "yes": 9, "no": 10, "missing": 10 , "children": [
        { "nodeid": 9, "leaf": 0.00357114756 }, 
        { "nodeid": 10, "leaf": 0.123496197 }
      ]}
    ]}, 
    { "nodeid": 2, "depth": 1, "split": "incomepir", "split_condition": 4.67999983, "yes": 5, "no": 6, "missing": 6 , "children": [
      { "nodeid": 5, "depth": 2, "split": "incomepir", "split_condition": 4.55999994, "yes": 11, "no": 12, "missing": 12 , "children": [
        { "nodeid": 11, "leaf": -0.0141265662 }, 
        { "nodeid": 12, "leaf": -0.0798452422 }
      ]}, 
      { "nodeid": 6, "depth": 2, "split": "incomepir", "split_condition": 5, "yes": 13, "no": 14, "missing": 14 , "children": [
        { "nodeid": 13, "leaf": -0.00166845566 }, 
        { "nodeid": 14, "leaf": -0.0135668814 }
      ]}
    ]}
  ]},
  { "nodeid": 0, "depth": 0, "split": "birth_year", "split_condition": 1966, "yes": 1, "no": 2, "missing": 2 , "children": [
    { "nodeid": 1, "depth": 1, "split": "race_ethnicityBlack", "split_condition": 1, "yes": 3, "no": 4, "missing": 4 , "children": [
      { "nodeid": 3, "depth": 2, "split": "birth_year", "split_condition": 1950, "yes": 7, "no": 8, "missing": 8 , "children": [
        { "nodeid": 7, "leaf": -0.00865958631 }, 
        { "nodeid": 8, "leaf": 0.00852609146 }
      ]}, 
      { "nodeid": 4, "depth": 2, "split": "incomepir", "split_condition": 1.00999999, "yes": 9, "no": 10, "missing": 10 , "children": [
        { "nodeid": 9, "leaf": 0.030455349 }, 
        { "nodeid": 10, "leaf": 0.0133122457 }
      ]}
    ]}, 
    { "nodeid": 2, "depth": 1, "split": "incomepir", "split_condition": 2.45000005, "yes": 5, "no": 6, "missing": 6 , "children": [
      { "nodeid": 5, "depth": 2, "split": "birth_year", "split_condition": 1993, "yes": 11, "no": 12, "missing": 12 , "children": [
        { "nodeid": 11, "leaf": 0.00109625515 }, 
        { "nodeid": 12, "leaf": -0.0387931317 }
      ]}, 
      { "nodeid": 6, "depth": 2, "split": "birth_year", "split_condition": 1994, "yes": 13, "no": 14, "missing": 14 , "children": [
        { "nodeid": 13, "leaf": -0.0377878286 }, 
        { "nodeid": 14, "leaf": -0.00529696513 }
      ]}
    ]}
  ]},
  { "nodeid": 0, "depth": 0, "split": "birth_year", "split_condition": 1980, "yes": 1, "no": 2, "missing": 2 , "children": [
    { "nodeid": 1, "depth": 1, "split": "race_ethnicityBlack", "split_condition": 1, "yes": 3, "no": 4, "missing": 4 , "children": [
      { "nodeid": 3, "depth": 2, "split": "birth_year", "split_condition": 1945, "yes": 7, "no": 8, "missing": 8 , "children": [
        { "nodeid": 7, "leaf": -0.0138928993 }, 
        { "nodeid": 8, "leaf": 0.00481838919 }
      ]}, 
      { "nodeid": 4, "depth": 2, "split": "birth_year", "split_condition": 1961, "yes": 9, "no": 10, "missing": 10 , "children": [
        { "nodeid": 9, "leaf": 0.0221024025 }, 
        { "nodeid": 10, "leaf": -0.00848453399 }
      ]}
    ]}, 
    { "nodeid": 2, "depth": 1, "split": "race_ethnicityHispanic", "split_condition": 1, "yes": 5, "no": 6, "missing": 6 , "children": [
      { "nodeid": 5, "depth": 2, "split": "birth_year", "split_condition": 2000, "yes": 11, "no": 12, "missing": 12 , "children": [
        { "nodeid": 11, "leaf": -0.00889689662 }, 
        { "nodeid": 12, "leaf": -0.0531303845 }
      ]}, 
      { "nodeid": 6, "depth": 2, "split": "birth_year", "split_condition": 1983, "yes": 13, "no": 14, "missing": 14 , "children": [
        { "nodeid": 13, "leaf": -0.0061990926 }, 
        { "nodeid": 14, "leaf": -0.0500128046 }
      ]}
    ]}
  ]},
  { "nodeid": 0, "depth": 0, "split": "incomepir", "split_condition": 1.33000004, "yes": 1, "no": 2, "missing": 2 , "children": [
    { "nodeid": 1, "depth": 1, "split": "race_ethnicityHispanic", "split_condition": 1, "yes": 3, "no": 4, "missing": 4 , "children": [
      { "nodeid": 3, "depth": 2, "split": "incomepir", "split_condition": 1.03999996, "yes": 7, "no": 8, "missing": 8 , "children": [
        { "nodeid": 7, "leaf": 0.014237809 }, 
        { "nodeid": 8, "leaf": 0.00201160228 }
      ]}, 
      { "nodeid": 4, "depth": 2, "split": "incomepir", "split_condition": 1.28999996, "yes": 9, "no": 10, "missing": 10 , "children": [
        { "nodeid": 9, "leaf": -0.00410541799 }, 
        { "nodeid": 10, "leaf": 0.0456754304 }
      ]}
    ]}, 
    { "nodeid": 2, "depth": 1, "split": "born_usa", "split_condition": 1, "yes": 5, "no": 6, "missing": 6 , "children": [
      { "nodeid": 5, "depth": 2, "split": "race_ethnicityBlack", "split_condition": 1, "yes": 11, "no": 12, "missing": 12 , "children": [
        { "nodeid": 11, "leaf": -0.0205280669 }, 
        { "nodeid": 12, "leaf": -0.0922397748 }
      ]}, 
      { "nodeid": 6, "depth": 2, "split": "race_ethnicityWhite", "split_condition": 1, "yes": 13, "no": 14, "missing": 14 , "children": [
        { "nodeid": 13, "leaf": 0.00215519755 }, 
        { "nodeid": 14, "leaf": -0.0123887872 }
      ]}
    ]}
  ]},
  { "nodeid": 0, "depth": 0, "split": "birth_year", "split_condition": 1977, "yes": 1, "no": 2, "missing": 2 , "children": [
    { "nodeid": 1, "depth": 1, "split": "incomepir", "split_condition": 3.9000001, "yes": 3, "no": 4, "missing": 4 , "children": [
      { "nodeid": 3, "depth": 2, "split": "birth_year", "split_condition": 1949, "yes": 7, "no": 8, "missing": 8 , "children": [
        { "nodeid": 7, "leaf": -0.00329417037 }, 
        { "nodeid": 8, "leaf": 0.0122113554 }
      ]}, 
      { "nodeid": 4, "depth": 2, "split": "birth_year", "split_condition": 1967, "yes": 9, "no": 10, "missing": 10 , "children": [
        { "nodeid": 9, "leaf": -0.00919118896 }, 
        { "nodeid": 10, "leaf": -0.0481176116 }
      ]}
    ]}, 
    { "nodeid": 2, "depth": 1, "split": "birth_year", "split_condition": 2000, "yes": 5, "no": 6, "missing": 6 , "children": [
      { "nodeid": 5, "depth": 2, "split": "race_ethnicityWhite", "split_condition": 1, "yes": 11, "no": 12, "missing": 12 , "children": [
        { "nodeid": 11, "leaf": -0.0231401399 }, 
        { "nodeid": 12, "leaf": -0.00144969451 }
      ]}, 
      { "nodeid": 6, "leaf": -0.0529495738 }
    ]}
  ]},
  { "nodeid": 0, "depth": 0, "split": "birth_year", "split_condition": 1995, "yes": 1, "no": 2, "missing": 2 , "children": [
    { "nodeid": 1, "depth": 1, "split": "birth_year", "split_condition": 1933, "yes": 3, "no": 4, "missing": 4 , "children": [
      { "nodeid": 3, "depth": 2, "split": "birth_year", "split_condition": 1932, "yes": 7, "no": 8, "missing": 8 , "children": [
        { "nodeid": 7, "leaf": -0.014864916 }, 
        { "nodeid": 8, "leaf": -0.083530955 }
      ]}, 
      { "nodeid": 4, "depth": 2, "split": "birth_year", "split_condition": 1965, "yes": 9, "no": 10, "missing": 10 , "children": [
        { "nodeid": 9, "leaf": 0.00885576848 }, 
        { "nodeid": 10, "leaf": -0.00264588813 }
      ]}
    ]}, 
    { "nodeid": 2, "depth": 1, "split": "race_ethnicityAsian/Other", "split_condition": 1, "yes": 5, "no": 6, "missing": 6 , "children": [
      { "nodeid": 5, "depth": 2, "split": "birth_year", "split_condition": 1998, "yes": 11, "no": 12, "missing": 12 , "children": [
        { "nodeid": 11, "leaf": -0.0296212789 }, 
        { "nodeid": 12, "leaf": -0.0529317334 }
      ]}, 
      { "nodeid": 6, "depth": 2, "split": "birth_year", "split_condition": 2000, "yes": 13, "no": 14, "missing": 14 , "children": [
        { "nodeid": 13, "leaf": 0.0548617616 }, 
        { "nodeid": 14, "leaf": -0.051642444 }
      ]}
    ]}
  ]},
  { "nodeid": 0, "depth": 0, "split": "birth_year", "split_condition": 1968, "yes": 1, "no": 2, "missing": 2 , "children": [
    { "nodeid": 1, "depth": 1, "split": "birth_year", "split_condition": 1942, "yes": 3, "no": 4, "missing": 4 , "children": [
      { "nodeid": 3, "depth": 2, "split": "birth_year", "split_condition": 1926, "yes": 7, "no": 8, "missing": 8 , "children": [
        { "nodeid": 7, "leaf": 0.00653364509 }, 
        { "nodeid": 8, "leaf": -0.0104248943 }
      ]}, 
      { "nodeid": 4, "depth": 2, "split": "born_usa", "split_condition": 1, "yes": 9, "no": 10, "missing": 10 , "children": [
        { "nodeid": 9, "leaf": -0.00605745427 }, 
        { "nodeid": 10, "leaf": 0.0135893393 }
      ]}
    ]}, 
    { "nodeid": 2, "depth": 1, "split": "race_ethnicityWhite", "split_condition": 1, "yes": 5, "no": 6, "missing": 6 , "children": [
      { "nodeid": 5, "depth": 2, "split": "birth_year", "split_condition": 1991, "yes": 11, "no": 12, "missing": 12 , "children": [
        { "nodeid": 11, "leaf": -0.0149534792 }, 
        { "nodeid": 12, "leaf": -0.0449746065 }
      ]}, 
      { "nodeid": 6, "depth": 2, "split": "birth_year", "split_condition": 1998, "yes": 13, "no": 14, "missing": 14 , "children": [
        { "nodeid": 13, "leaf": 0.00270175468 }, 
        { "nodeid": 14, "leaf": -0.0524735712 }
      ]}
    ]}
  ]},
  { "nodeid": 0, "depth": 0, "split": "incomepir", "split_condition": 1.03999996, "yes": 1, "no": 2, "missing": 2 , "children": [
    { "nodeid": 1, "depth": 1, "split": "race_ethnicityHispanic", "split_condition": 1, "yes": 3, "no": 4, "missing": 4 , "children": [
      { "nodeid": 3, "depth": 2, "split": "incomepir", "split_condition": 0.970000029, "yes": 7, "no": 8, "missing": 8 , "children": [
        { "nodeid": 7, "leaf": 0.0129047809 }, 
        { "nodeid": 8, "leaf": 0.0408690274 }
      ]}, 
      { "nodeid": 4, "depth": 2, "split": "incomepir", "split_condition": 0.860000014, "yes": 9, "no": 10, "missing": 10 , "children": [
        { "nodeid": 9, "leaf": -0.00437215297 }, 
        { "nodeid": 10, "leaf": -0.0323824733 }
      ]}
    ]}, 
